0.005510248
0.0030000312
0.02611102
0.043560967
0.023734283
0.019367531
0.007233081
-0.0037506833
0.010434421
0.056366976
0.06164639
0.04923925
0.054050323
0.036605056
0.063834555
0.050139744
0.021221269
0.023103608
-0.011947842
0.0022488062
0.03913429
0.04697913
0.07559536
0.05335148
0.036489412
0.0152318785
-0.009756623
0.07789272
0.047760982
0.012264543
0.048822887
0.026961587
0.005724807
0.055802576
0.04312707
0.031690296
-0.027835093
-0.052618604
-0.016486771
-0.04465779
-0.010560978
-0.029682279
0.009646255
-0.000113606686
-0.021449417
0.014664499
-0.026408002
-0.0046185004
0.0039889943
0.012394879
-0.032491952
0.029498309
-0.0021928716
-0.012080815
-0.0046974146
0.008696298
0.006413831
0.010010625
-0.017167315
-0.022120474
-0.004537689
0.012658356
-0.03177177
-0.004896261
0.0009343479
-0.0016900604
0.027104203
-0.022587618
-0.021229045
-0.0007049097
-0.036494914
0.011643616
-0.021042172
-2.9891991e-05
0.0036336281
-0.014956731
0.008386079
0.01256552
-0.011374491
-0.015600166
-7.967872e-05
0.014077767
-0.033349395
0.0016289073
-0.040709924
0.04917651
-0.02531743
-0.004291232
-0.025415417
-0.016317315
0.017234957
-0.037780557
-0.023218557
-0.030099317
-0.01721645
-0.020444712
0.004982924
-0.035806477
-0.007215057
0.06567757
-0.015315098
-0.008227165
-0.0043774094
0.00423027
0.037293054
-0.025609812
0.0016822302
-0.019178998
-0.0039646914
-0.056622934
-0.03037278
-0.014254754
-0.010032026
-0.039242808
0.016197594
-0.017190315
-0.00025409972
-0.00023962761
-0.0080614835
-0.009348194
0.035875037
-0.040755775
-0.012492706
-0.038117856
-0.014075379
0.006006012
-0.036154136
0.007468486
0.0014177631
-0.020764166
-0.015381308
0.0030101072
-0.040493235
-0.02403374
-0.036137484
-0.003906369
-0.013272207
0.024858018
-0.008338682
0.038348
0.01450401
-0.016202895
-0.0003311571
-0.03907627
-0.01671836
-0.022936566
-0.02067799
0.016860716
-0.0031442158
0.0061644246
-0.042840146
-0.018905733
-0.031217393
-0.013647548
0.044742186
0.004911648
-0.009226423
-0.008145904
-0.041209813
-0.016191775
-0.015033498
0.01119015
-0.015281975
-0.011128086
0.0062206835
0.0032884933
-0.034238514
-0.011621763
-0.00025116975
0.03020529
-0.031184895
-0.021040877
0.0054851165
-0.03188386
-0.021285022
-0.024442464
-0.009945462
-0.015811505
-0.011189052
-0.004644585
-0.007662109
-0.026205692
-0.02976026
-0.02421463
-0.03372271
-0.023469625
-0.009467162
-0.012178944
0.020695427
-0.038969044
0.00060346787
-0.002623856
-0.013624694
-0.018036172
-0.015785884
-0.0054865666
-0.034026377
