-0.034288295
-0.028129894
0.007039261
0.026166432
0.014681223
0.017301591
0.007867292
-0.019961344
0.013728981
0.027247604
0.02872173
0.023698559
0.020500017
0.013371631
0.029599847
0.01323441
-0.0090341335
0.0012054715
-0.011053631
-0.046062887
0.0070181154
0.0002806128
0.040929183
0.005812211
0.03436577
0.003973625
0.006112283
0.034439586
0.03250755
0.018344302
0.013286168
-0.008120347
-0.042313308
0.012272903
0.022458801
-0.0073952107
-0.039214138
-0.06867595
-0.011337757
-0.06437184
-0.011398631
-0.028193843
-0.030050505
-0.02221748
-0.030290272
-0.010078227
-0.0131742805
-0.034940183
-0.019997044
-0.020081092
-0.026599476
0.01247553
-0.03834411
-0.034874152
-0.04522961
-0.015695753
0.0016437926
-0.009822842
-0.04265302
-0.0435165
-0.019362409
0.014488226
-0.05724555
-0.00094817136
0.00985515
-0.00032741998
0.0073568067
-0.025839493
-0.038033076
-0.022124669
-0.015080787
-0.012801558
-0.024313122
-0.0006875624
-0.0023631968
-0.020571586
-0.013309363
-0.032356434
-4.303461e-05
-0.006248717
-0.024086544
-0.012847607
-0.011009682
-0.015637519
-0.0446195
0.02047706
-0.026657166
0.0019149703
-0.043114103
-0.008540833
-0.022944096
-0.033542372
-0.019217934
-0.036660362
-0.032875665
-0.0099446345
-0.026229102
-0.019922743
0.008198972
0.03522069
-0.07982825
-0.02554998
-0.023395145
-0.021931475
0.021393856
-0.050118636
-0.000843991
0.0020943019
-0.020312998
-0.066848576
-0.0044610677
0.002681168
-0.027500212
-0.025569089
-0.021356316
-0.0045407526
-0.022670964
-0.0062480127
-0.019486677
-0.01630655
0.020767663
-0.049354378
-0.0063491007
-0.038764928
-0.024141708
-0.015683083
-0.019379815
-0.026304886
-0.007635947
-0.003948698
-0.0018957737
-0.0046152445
-0.055520788
-0.011045362
-0.044185854
-0.031696945
-0.032551654
0.0071894345
-0.007871702
0.012743059
-0.009189288
-0.00028981725
-0.021295233
-0.06588502
0.0013482437
-0.01994767
-0.0478826
-0.02480507
0.00072288676
-0.01905104
-0.037969057
-0.0129824765
-0.03538779
-0.036408927
0.014891057
-0.04147732
-0.031971198
-0.045918673
-0.01001979
-0.029490866
-0.007042278
0.021094982
-0.0035759173
-0.025705855
-0.027193166
-0.026749477
-0.047961507
0.0058700917
-0.01888253
0.017822977
-0.03347122
-0.007618134
-0.048985966
-0.032946497
-0.04702701
0.0014994988
-0.023839245
-0.046857618
0.0010303578
-0.017915273
-0.019325567
-0.035936385
-0.006648283
0.009166104
-0.04592347
-0.0052011693
0.0070146876
-0.0038268312
0.0272712
-0.02339136
-0.0038048946
0.004861626
-0.024594916
-0.030910157
-0.037083227
-0.03757804
-0.043796778
