-0.014122055
-0.015306124
0.018602617
0.03602444
0.056115452
0.030828534
0.03047026
-0.04737795
0.01593823
0.03671395
0.043251105
-0.0048026443
0.037539225
0.035552718
0.058310248
0.040586654
-0.0099691935
0.023703339
-0.00588325
-0.025685774
0.033678208
0.04896303
0.053607356
0.028929804
0.014550632
-0.0046259775
0.0061191507
0.029748077
0.06430599
0.030384433
0.041348416
0.008782785
0.037068855
0.042539727
0.067097135
0.032485686
-0.0414228
-0.039188642
-0.04739457
-0.1277392
-0.0005439242
-0.052695516
-0.02700121
-0.019382844
-0.014678572
-0.041260798
-0.051527083
-0.019056628
-0.01896318
0.0014764656
-0.004885508
-0.0013918427
-0.04257601
-0.057834547
-0.009127468
-0.04075432
-0.010207131
-0.029543204
-0.025013944
-0.02873278
-0.033718467
-0.064002015
-0.04078418
0.0032439153
0.005966228
-0.026018437
-0.013706641
-0.049141727
-0.014605712
0.004984138
-0.016420323
-0.04284363
-0.049221348
-0.017237753
-0.0018128089
-0.015072326
-0.00506155
-0.032337233
-0.0073648077
-0.007425217
-0.049007714
-0.0011925504
-0.023765946
-0.0058244253
-0.05462823
-0.00040752327
-0.06875599
-0.0043078484
-0.029168926
-0.016218452
-0.03393011
0.012258812
-0.033573113
-0.014448247
-0.08648804
-0.0435228
0.0025446059
-0.02814206
-0.0040569785
-0.009375332
-0.06164984
-0.019400932
-0.04620026
-0.031098375
-0.02029437
0.009931551
-0.009599072
0.004710294
-0.03613249
-0.034561444
-0.027281879
-0.009350338
-0.077202745
-0.015569154
-0.009314379
-0.02140102
-0.029126005
0.0027936124
0.0073782657
-0.007143579
-0.001615299
-0.032953236
-0.010194541
-0.059263036
-0.02777005
-0.015477371
-0.020170923
-0.026095942
-0.01728676
0.0007938641
-0.013003305
-0.012721769
-0.010543962
-0.023741888
-0.12140487
-0.018012801
-0.02133735
0.01399869
0.001129355
0.0047704787
0.008151342
0.0037102124
-0.033062525
-0.0372668
-0.009068325
-0.03082078
-0.05867973
-0.014585469
0.0053341314
-0.022529513
-0.018310685
-0.00021839025
-0.024478544
0.011528358
0.028439056
-0.023102706
-0.029327065
-0.07877972
-0.024379242
-0.010522502
-0.015647843
-0.04773294
-0.010466076
-0.0023662057
-0.025418358
-0.035617743
0.0043975143
-0.006890563
-0.015556516
-0.029447021
-0.040677767
-0.03164268
-0.029077543
-0.112404294
-0.0029018237
-0.013003807
-0.020230561
-0.0636771
-0.007438754
-0.02009992
-0.032571245
-0.01389686
-0.03774501
-0.024548937
-0.106236435
-0.02760678
-0.00053155
-0.013144462
-0.049510963
-0.029164787
-0.02999537
-0.020028545
-0.018412229
-0.06559682
-0.022821348
-0.018975854
-0.09081413
