-0.015021848
0.022660652
0.0021253354
-0.007386132
-0.011719402
-0.055947367
-0.021624027
-0.027158724
-0.017345978
0.005744504
-0.037420176
-0.03308227
-0.021908814
-0.09771454
-0.03610144
-0.022830322
0.07420727
-0.08927777
-0.025580276
-0.043171324
-0.006083372
0.0028289384
-0.056547403
-0.065339334
-0.081529364
-0.06450737
0.022924282
0.04486964
-0.018739205
-0.100673854
-0.06268489
-0.12148404
-0.035743747
-0.06645143
-0.0530681
-0.03241912
0.006577883
-0.08119401
-0.06424934
-0.0010846087
0.015931727
-0.0610394
-0.07289447
-0.15029258
-0.21303125
0.0092135975
-0.015267003
-0.21275938
-0.2626417
-0.10952592
-0.00038491248
0.010851389
-0.05463063
-0.2248285
-0.17070496
-0.17215501
-0.03304957
0.013782904
0.009817191
0.079033636
-0.077414796
-7.708583e-05
0.0072175963
-0.052985974
-0.019514754
-0.10754268
0.0076779504
0.015386441
0.053002924
-0.06687773
-0.08933946
0.00050314213
-0.0077675493
-0.12658274
-0.05936645
-0.0976993
0.016954096
-0.0032851729
-0.0031191355
-0.11301171
0.007556582
-0.008272335
0.053428147
-0.16158834
-0.18305872
0.0015328336
-0.016333705
-0.047652278
-0.05846682
-0.020743025
0.0003347175
-0.008878197
0.02511021
0.09049485
-0.00264241
-0.0011937113
-0.07861283
-0.13705185
-0.042517867
0.0036483207
-0.05967136
-0.0134484675
-0.044579964
-0.06849796
0.002918543
-0.015040178
-0.03697991
-0.16878876
-0.00950297
0.008799816
-0.0073540537
-0.011685309
0.0069571645
-0.00027155265
-0.0072172997
-0.13675018
0.005292221
-0.0063113943
-0.1246375
-0.030840557
-0.013024514
0.06249136
-0.040726118
0.007072576
0.017656868
0.00074512005
0.08125499
0.003466585
0.008321961
-0.06570008
-0.08860201
0.01381059
0.017357253
0.02297354
-0.00499994
-0.14716168
-0.07749796
-0.012345542
-0.04492936
-0.0045059714
0.0156142
-0.024889302
0.0019864538
0.028522564
-0.12964529
-0.017816767
-0.0137962205
0.0177346
-0.041700006
-0.005911362
-0.2716813
-0.13275833
-0.22422369
-0.12374469
-0.008331124
0.061485328
0.01652738
0.011682714
0.027708437
0.12032218
-0.047725827
0.00030098401
0.008832087
0.03519349
-0.032440342
-0.006928288
-0.01868027
-0.07343305
0.050683744
-0.0064364234
-0.063783444
-0.17474101
-0.18438423
0.005777408
0.025057327
-0.04718623
-0.10941098
0.0014019809
-0.025555206
0.03431878
0.0025979818
-0.065073885
0.004807296
-0.19942927
0.0066366643
-0.017912382
0.02765213
-0.055455584
-0.010209147
-0.06751724
0.002547996
-0.012803012
0.0018040515
-0.048136953
-0.08434405
-0.119144455
-0.0025351024
