-0.035813745
-0.024257675
0.0071403934
0.04540359
0.027226944
0.0252359
0.012586956
-0.049000833
-0.002824274
0.047094263
0.035015095
0.010931182
0.061951015
-0.002308745
0.040378124
0.03854092
-0.0048103076
0.014793649
-0.017921604
-0.032372613
0.0126628755
0.06653871
0.06654235
0.0069308863
0.0016505056
0.003936241
-0.010257303
0.020281482
0.050994463
0.02122831
0.024069253
-0.010438466
0.028766515
0.030958068
0.036998924
0.023010788
-0.031311292
-0.036439326
-0.032323766
-0.14141655
-0.028256375
-0.057708845
-0.030236125
-0.016204359
-0.027303621
-0.039295293
-0.018184496
-0.037484642
-0.018536462
0.006445825
-0.011864757
-0.020601928
-0.028414596
-0.03276552
-0.014922754
-0.016636008
-0.0037200206
-0.036189735
-0.015915545
0.009795864
-0.018744314
-0.08112877
-0.0027639458
0.0031546927
-0.0030497226
0.0026236381
-0.029422298
-0.037324708
-0.024071721
-0.013142675
-0.008717614
-0.0510748
-0.013828878
-0.010856529
0.0049284617
-0.0062258653
-0.033087656
-0.020849017
-0.013580078
-0.019694451
-0.05502996
0.019647641
0.0019862717
-0.00850977
-0.02345387
-0.0006809741
-0.04095813
0.013575225
-0.011549966
-0.02340872
-0.054702647
-0.014157777
-0.025690215
-0.013330172
-0.10583221
-0.030859733
0.0018635171
-0.0124572795
-0.013081911
-0.03051555
-0.020084566
-0.0222968
-0.009570193
-0.015990973
-0.039073262
-0.0024554166
0.0002871964
0.0007468363
-0.0500665
-0.016062388
-0.027741874
0.00256529
-0.09773841
-0.015094225
-0.0026783335
-0.0005252094
-0.06459297
-0.0123005705
0.0027424097
-0.001619101
-0.0006467868
-0.014472736
-0.02023731
-0.09837283
-0.026738664
-0.0030488106
-0.005690337
-0.047261577
0.0025226362
-0.006451149
0.004587616
-0.031595174
-0.009458264
-0.016611844
-0.11755359
-0.014368686
0.010245346
-0.0137860095
0.0010279643
-0.015516753
-7.144423e-06
0.0050386293
-0.0355329
-0.042449303
-0.02386778
-0.030913657
-0.060879298
-0.015415869
0.010805594
-0.03852946
-0.0193499
-0.008334103
-0.012340729
0.006379771
0.010867642
-0.012077034
-0.007110081
-0.09596257
-0.002608302
-0.009773152
-0.021496607
-0.053340096
0.018309284
0.00033688956
-0.012498628
-0.035618592
-0.011178979
-0.0141998
0.0015708134
-0.02648009
-0.03678311
-0.02868751
-0.011157463
-0.105880804
-0.009817458
-0.022664625
0.0035376342
-0.06396673
0.013646807
0.0025276176
-0.05621785
-0.053385496
-0.02860802
-0.05267252
-0.10531748
-0.0066137584
-0.012860301
-0.011094819
-0.050182678
-0.014320633
0.00040890445
-0.026909601
-0.03525361
-0.01081022
-0.028365673
-0.03555554
-0.10264675
