-0.022400381
-0.018738786
0.008664122
0.029192338
0.018367996
0.037660655
0.040323325
0.0033570472
0.0021717364
0.04064328
0.04637154
0.016251365
0.04384165
0.014818125
0.05508475
0.027493302
0.004510422
0.017736353
-0.009881214
-0.021508627
0.0162885
0.019550862
0.05547512
0.024302477
0.0055129346
0.022915313
-0.00635698
0.01757829
0.04086664
0.01668311
0.032443624
0.0039441604
-0.0020730013
0.042573556
0.032097887
0.03906887
-0.04164119
-0.07435336
-0.016185163
-0.050224703
0.0092427125
-0.021697737
-0.027672648
0.009126975
-0.012564632
0.0016108139
0.0029343893
-0.017528545
-0.014091126
-0.015058921
0.023867566
0.021183832
-0.061441172
-0.06525896
-0.026724068
-0.02373073
0.007166258
0.020182414
-0.030583331
-0.04386588
-0.010223825
0.031165566
-0.031744193
0.009833385
0.00072828704
-0.025523322
0.024854084
-0.057203922
-0.06272658
-0.021808062
-0.025362117
0.00300443
-0.04936085
-0.013897223
-0.019162782
-0.010550164
0.004932192
-0.0055914437
-0.009147179
-0.009204043
-0.009702892
0.0059644324
-0.03174169
-0.017138658
-0.037483692
0.03199677
-0.023379723
-0.00029142873
-0.032029886
-0.007959912
-0.0059007574
-0.039068896
0.0037259746
-0.01865219
-0.032772925
-0.051218275
-0.00068499905
-0.010557171
-0.006057499
0.046371736
-0.07274139
-0.012686375
-0.016446883
-0.0160378
0.028817378
-0.044406768
-0.0046115415
-0.00077333057
-0.011180849
-0.0464506
-0.03549761
-0.009679359
-0.033605132
-0.012320088
0.0029842996
-0.034512285
-0.022431718
0.008319179
-0.016074395
-0.01253256
0.023934573
-0.049854826
-0.004667256
-0.047385667
-0.042597212
0.0032655667
-0.02955755
-0.008958554
-0.004952564
-0.024765046
-0.013987789
0.015088276
-0.019279465
-0.006438305
-0.050740324
-0.0057826494
-0.002649891
-0.020822596
-0.002804172
0.029885458
-0.030673262
-0.012304892
-0.02871096
-0.03691313
-0.0127681345
-0.024586
-0.034333903
-0.022340272
0.0013371801
-0.008018499
-0.030865014
-0.034820426
-0.02367995
-0.0098543735
0.038385425
-0.043053504
-0.024520194
-0.03695788
-0.014695577
-0.018300394
-0.01104485
0.0220169
-0.0067670615
0.0054533463
-0.014900396
-0.0044780867
-0.044911187
0.02475215
-0.019511893
0.034032423
-0.044735227
-0.013076935
-0.028223807
-0.04515223
-0.029646197
-0.008217218
-0.018309817
-0.027498772
-5.8800186e-05
-0.020506473
-0.016666759
-0.013192024
-0.031442024
-0.040000368
-0.04169186
-0.04588494
-0.020462474
0.013313973
0.027997967
-0.029604947
-0.005145777
-0.0140741905
-0.0018194
-0.024615522
-0.033970356
-0.024719622
-0.049106065
