-0.009041163
-0.0017005365
0.041847758
0.08001709
0.039139885
0.027706075
0.022008082
0.00011329312
0.0073179496
0.058978334
0.064266875
0.0151869105
0.07226756
0.034515187
0.06830307
0.067075305
0.011068012
0.03511474
0.009140189
-0.025120072
0.028928932
0.06582124
0.076768816
0.030431036
0.021217505
0.008778247
0.019225076
0.03856256
0.08901345
0.041424
0.02709953
0.031146416
0.042858146
0.048968397
0.078177325
0.025442015
-0.03686562
-0.04309051
-0.0048670615
-0.07089067
-0.044289663
-0.036896363
-0.00046228094
-0.00554876
-0.039884236
0.0028579247
-0.015780106
-0.0064719417
0.0010700249
0.025447235
-0.021108743
0.031685125
-0.034168743
-0.037098628
0.003979729
-0.024605976
0.011837219
0.018364377
-0.027146257
-0.045493696
-0.03191796
-0.014476249
-0.026033778
0.0031254885
-0.021953614
-0.035467368
0.023913441
-0.026390323
-0.031922393
-0.014604295
-0.035537753
0.006099964
-0.008470287
-0.01590569
-0.0051249266
0.0070400974
0.018442657
-0.022205032
-0.006834074
-0.014049304
-0.005026018
0.044085782
0.0019215441
-0.0059478316
-0.033640224
0.03655158
-0.032384716
0.009949053
-0.03207037
-0.024906171
-0.017281158
-0.031119606
-0.0052904505
-0.021170234
-0.043072525
-0.03637386
-0.0034955577
-0.028484268
-0.019007573
0.03156331
-0.03636159
-0.00912235
-0.03697728
-0.01407566
-0.0012868922
0.01518988
0.010322998
-0.0032083865
-0.011510199
0.002118984
-0.04487154
0.020042697
-0.03892715
-0.0142996395
-0.015182423
-0.006946532
-0.007053494
0.01964881
-0.0048807706
-0.006300058
0.0420779
-0.0043080663
-0.030130358
-0.042680886
-0.015220141
-0.006306149
-0.027681023
-0.006706165
-0.005860022
-0.022877986
0.004215602
0.010946854
-0.025882922
-0.004887605
-0.050415203
-0.0073307245
-0.019800087
0.012705059
-0.017663822
0.025167627
-0.023555065
-0.008363592
-0.0006709447
-0.020181114
-0.0032312959
-0.004749515
-0.029637344
-0.010647748
0.01691085
-0.00080013275
-0.02092729
0.01379103
-0.0040744785
-0.013659042
0.050690185
-0.010525807
-0.031102974
-0.041059952
-0.007878198
-0.0137826605
-0.019977855
-0.0150654875
-0.0022328913
-0.013980899
-3.5905163e-05
0.00656785
-0.03378779
-0.00913668
-0.01511298
-0.0055256104
-0.024911664
-0.01939092
-0.019531192
-0.05728796
-0.024623608
1.0365067e-05
-0.0148345865
-0.0028617578
0.003810252
0.0035012404
0.0018144138
-0.057270385
-0.040236816
-0.0071817827
-0.053997885
0.007973808
-0.020753575
-0.004216205
-0.0014343483
0.0016123808
0.015452799
-0.010276898
-0.0042881295
-0.02687278
-0.009529513
-0.015803874
-0.0700334
