0.00052345934
0.03130659
0.01764347
0.054806676
0.044448636
0.052317504
0.019393655
0.0155184185
0.001788279
0.07179483
0.06461915
0.007696105
0.056648325
0.025682798
0.07439399
0.03611318
0.005706803
0.027496347
-0.0137179885
0.0048803603
0.04503845
0.07118048
0.07696808
0.054258447
0.039130256
0.027254803
0.015284415
0.051336236
0.08445153
0.041582372
0.042929076
0.026896773
0.019926608
0.061961703
0.07088962
0.029989371
-0.026689949
-0.028457982
-0.028914675
-0.038259573
0.016042385
-0.009463253
-0.011257964
0.0011985936
-0.010095915
0.022769284
-0.0034590003
-0.025309015
-0.015103407
0.015450654
-0.0064591486
0.04986136
-0.0032819004
-0.004891754
-0.0055211745
0.016858326
-0.0083379
0.02738527
-0.0044920216
-0.036495816
0.006952924
0.020100955
-0.010115992
0.016705351
-0.021336222
-0.004417684
0.045468546
-0.0071080904
-0.009681768
-0.000410476
0.005130871
0.029867083
-0.020757046
-0.0031998355
0.011637009
0.014485875
0.031218762
-0.025539609
-0.0099018
-0.018442547
0.018776983
0.014687046
-0.024440631
0.004417575
-0.020510774
0.07814234
-0.01974749
0.0063295956
-0.022401176
0.002857965
0.025564993
-0.025524521
0.002664046
-0.025366198
0.004842678
-0.019524947
0.007300981
0.006736173
-0.0017434809
0.053669114
-0.0014196893
-0.0046236133
-0.015532787
0.007571091
0.036502525
0.014106926
0.0008596862
-0.017297953
0.016501065
-0.016356433
-0.01227477
-0.0029145982
-0.0013268099
-0.025344444
-0.007607565
0.0013416132
0.0041656904
-0.001650792
0.003047158
-0.0007774688
0.065625615
-0.016796
-0.0025661103
-0.01515312
-0.008690191
0.006595938
0.022833161
0.0027094583
-0.0033512174
-0.0082463855
0.012213469
0.041651785
-0.02826175
-0.019874057
-0.029373249
0.0041876235
0.0068639824
0.011465302
0.008892539
0.049601838
0.017333675
-0.009314606
0.025934512
-0.010291525
-0.0023447545
-0.028244574
0.012656673
0.017505504
-0.0012337109
0.023723407
-0.015074499
0.009702804
0.008265395
-0.010916234
0.068053946
-0.0041727265
-0.0037373286
0.0072350497
-0.025580041
-0.014967696
-0.01712162
0.01630207
0.0028133541
0.0050370605
0.000749346
0.024889464
-0.012264446
0.009738945
0.010246379
0.027360864
-0.020249113
-0.018498207
-0.0038080488
-0.027470643
0.0016450929
-0.00023480545
-0.0008725402
0.014032951
-0.00011404135
-0.019105267
0.025390325
-0.022301177
-0.025181158
-0.0039541344
-0.019310854
0.0032609294
0.013262925
0.0063880477
0.02342821
-0.00786591
0.01637836
0.00038366742
0.014634865
-0.027011137
-0.014835393
-0.035840776
-0.012433518
