-0.021849088
-0.01301252
0.0017262804
0.044457726
0.038506847
0.014331657
0.01487341
-0.009339312
0.018728584
0.052327666
0.036136772
0.017616803
0.04354774
0.009304665
0.024660096
0.023724278
-0.010978325
0.01580841
-0.0061149024
-0.028242603
0.0016605947
0.04033104
0.04639748
0.019468842
0.028240338
0.022827145
-0.029652553
0.01667404
0.040380724
-0.004309191
0.031930353
0.014539944
0.01027044
0.03857541
0.041826725
0.034896534
-0.045982733
-0.048827194
-0.027218064
-0.12586997
-0.033908848
-0.03687003
-0.047179937
-0.007393623
-0.03232964
-0.025323777
-0.023978552
-0.03747145
-0.006713845
0.004707418
0.0040506283
-0.013556467
-0.038479127
-0.012220448
-0.025357684
-0.040235374
0.00061235396
-0.01694463
-0.014893256
0.0024849616
-0.026304312
-0.07333998
-0.015717315
0.014185922
-0.012799585
-0.03913852
-0.011329831
-0.03446049
-0.0129194185
-0.0044136923
-0.004068538
-0.029007835
-0.01291926
-0.0012055924
-0.021255769
-0.0136597315
-0.024574213
-0.019903848
-0.017847663
-0.019476822
-0.04443843
0.014621278
-0.0038632243
0.009926474
-0.02247257
0.00026036077
-0.04004872
-0.0036990317
-0.02310754
-0.031400982
-0.025448462
-0.028578384
-0.02055008
-0.0073570013
-0.06991254
-0.035395533
-0.008062314
-0.03237923
-0.019863809
-0.01097199
-0.05460969
-0.029547594
-0.044453986
-0.009645374
-0.034696594
-0.0045327465
0.008608177
-0.0032329694
-0.025143603
-0.03315741
-0.03999354
-0.024356188
-0.06834975
-0.037945908
-0.0025470592
-0.035345875
-0.046084553
-0.015165553
-0.019085648
0.012443529
0.011163884
-0.015798755
-0.022755232
-0.06478981
0.00015402155
-0.02966535
-0.007404176
-0.043973293
-0.009604993
-0.0066923043
-0.018290333
-0.023611633
-0.0009382692
-0.029364055
-0.09874818
0.0027947032
-0.010790464
-0.008169043
-0.030617343
0.0052500963
0.019657118
-0.02888426
-0.040860917
-0.011462541
0.0066365404
-0.0036000288
-0.06906235
-0.0024970064
0.0024369746
-0.03577027
-0.033415873
0.0083717825
0.021689042
-0.008234559
0.018047985
-0.0021346272
-0.015600898
-0.069037534
-0.020679776
-0.017857779
-0.018137796
-0.063672125
0.02151303
-0.010491085
0.009869114
-0.012801881
-0.010090028
-0.024197467
-0.0028560935
-0.034772247
-0.037630703
-0.019106751
-0.02733185
-0.09728298
-0.043636657
0.0077001797
-0.020058759
-0.04864642
-0.0062046926
-0.0018304202
-0.023461603
-0.02148096
-0.035193957
-0.033185355
-0.08873329
-0.004487533
-0.018478766
-0.013027745
-0.04617395
-0.015777154
-0.015444427
0.00011893161
-0.015791206
-0.05305943
-0.0048639285
-0.018751908
-0.097167395
