-0.018981338
-0.004315193
0.035545845
0.06395676
0.07251372
0.036819078
0.030331392
-0.0016226685
-0.0150345955
0.07499196
0.071114235
0.019346535
0.07194133
0.037504923
0.05531655
0.05046371
-0.0101087615
0.045276288
-0.0114178825
-0.02622242
0.054462746
0.06751726
0.066477925
0.04646862
0.039596207
0.029983904
0.018849941
0.05349462
0.08438651
0.03359214
0.06730128
0.022813022
0.04155855
0.06600547
0.05701198
0.038779125
-0.018869624
-0.0222313
-0.02600313
-0.077663556
-0.030826522
-0.009144735
-0.034241993
-0.008654194
-0.023721702
-0.0053488244
0.0063686226
-0.012508816
0.018695815
0.00091639964
-0.014192976
0.035478435
-0.035381068
-0.020206384
-0.0070483056
-0.013655765
0.009468345
0.014470353
-0.018081423
-0.012545109
-0.030842256
-0.014790993
-0.018224247
0.017701317
0.012903884
-0.0011103126
0.014645955
0.003764603
-0.009102884
-0.0031574627
-0.0035567344
-0.006808727
0.00085522566
-0.013932327
0.026559643
0.013582785
0.026712565
-0.011900878
0.009044235
-0.03856163
-0.0045956234
0.0057689343
0.025328003
-0.006691465
-0.023034863
0.046459515
-0.04451473
-0.016010541
-0.021054432
-0.010919389
0.014471731
-0.05140227
-0.00086949207
0.0057442836
-0.040525425
-0.05083696
0.00086040207
-0.015934426
0.014035814
0.013376025
-0.005480946
-0.0044725956
-0.022839144
-0.006847425
-0.0033467042
-0.0035984078
-0.011759258
0.00012747395
-0.0008549086
0.028300656
-0.05747006
-0.012724435
-0.045329235
-0.01770654
-0.0018554468
0.0048207375
-0.015114433
0.004897728
-0.006305403
-0.011348364
0.05542586
-0.012077054
-0.0073873457
-0.049070343
0.0023194416
0.010780799
-0.0073707285
0.0009160783
0.006523082
-0.008746266
-0.00068573956
0.023145761
-0.020123892
-0.01874805
-0.07569195
0.005211425
-0.011032444
0.018437617
-0.02273907
0.031148396
-0.019412214
0.011026941
0.0110044675
-0.010167658
-0.027210759
-0.024171602
-0.015080777
-0.02606869
0.027031772
0.01608733
-0.015668629
0.008560284
0.007062481
-0.008292526
0.060007192
-0.0148872575
0.004186454
-0.03696919
0.0059513752
-0.004441991
0.0027380942
-0.019170078
-0.012049796
0.0013280438
0.0016770549
0.012267556
-0.023467336
-0.008118825
0.005544649
0.006450616
-0.009746922
0.0011462849
-0.029569961
-0.05991368
-0.0036329473
-0.012060379
-0.021006849
0.006608661
-0.0111968145
-0.0072590164
0.019117812
-0.03330428
-0.022739908
-0.01823293
-0.05126886
-0.031047497
-0.015040289
-0.005881996
-0.0010321866
0.016723298
0.025750808
-0.01468125
0.0104893455
-0.015149948
-0.0157566
-0.033841398
-0.05721516
