-0.007948182
-0.011986855
0.015328178
0.04627275
0.028012604
0.030431047
0.02585357
0.016979305
0.020180814
0.047507297
0.048858058
0.025184644
0.06516708
0.020257467
0.05461409
0.042397358
0.008187395
0.022824293
-0.0041013067
-0.010816809
0.024567647
0.028381433
0.08339242
0.01991539
0.048512727
0.037549354
-0.00034105
0.045453265
0.07258841
0.013162252
0.025017714
0.0338324
0.006097026
0.07131707
0.05979261
0.03158608
-0.017393319
-0.033052884
0.0031884667
-0.040101822
0.005484139
-0.012576595
-0.022551138
0.0021303967
0.009010628
0.011824314
-0.021630952
-0.009492523
-0.009508973
0.019515574
-0.0032102233
0.03728375
-0.031154929
-0.005697614
-0.015499299
-0.020909239
0.014192055
0.014784543
-0.008881405
-0.025289623
-0.011684635
0.017304396
-0.015918428
0.0040585706
-0.002533445
0.012706448
0.016834874
-0.017150534
0.0042555244
0.0041755056
-0.010527388
-0.0029649034
-0.007644994
-0.012785603
0.0023211269
-0.0036774657
0.024186382
-0.021260316
-0.01651662
-0.016670719
-0.012907413
0.014431174
-0.0032952002
0.002243443
-0.030509982
0.0373134
0.0028971508
-0.009393041
-0.013065277
0.01246922
-0.01654856
-0.004460393
-0.018297918
-0.017585475
-0.017532043
-0.026417578
-0.019882992
-0.0075828177
-0.0051689707
0.06116835
-0.03009107
-0.002829561
-0.013210835
-0.020034837
0.027832137
-0.037844345
0.004118742
-0.0031941277
-0.010167128
-0.012444963
-0.015663978
0.0034773734
-0.009744785
-0.0010192634
0.0030286023
-0.0030967575
-0.010852816
-0.0052652443
-0.012966898
-0.009189653
0.048666753
-0.035269126
-0.0155597525
-0.025639143
-0.0029896623
-0.0015408961
-0.025829624
-0.008597686
0.014988569
-0.008763638
-0.018158626
0.020006528
-0.02968243
-0.026708104
-0.03888858
-0.018662488
-0.0013543759
0.0004633377
0.0024808147
0.051831435
0.005584105
0.00092887954
-0.0068945303
-0.0339453
-0.014763211
-0.009063578
-0.0071049314
0.0006157528
0.0012620876
-0.019694237
-0.017234936
-0.0007974673
-0.004346115
0.015862163
0.046026457
-0.04866198
-0.00996224
-0.019028429
-0.019501688
-0.007074987
0.0062109698
0.008651224
0.00034278492
-0.00036111465
0.0004291054
-0.0056698117
-0.041697405
-0.015626313
-0.024657851
0.038063508
-0.012019241
-0.007567943
-0.0043970756
-0.030878529
0.010250512
0.00755273
-0.025892057
-0.014314392
-0.008165664
0.0024503942
0.0052651535
-0.018175568
-0.0064436654
0.001352716
-0.03340027
-0.018504117
-0.011742439
0.00025305903
0.017546196
-0.0062335674
-0.007863632
-0.014056126
-0.0062214006
-0.02977899
-0.00990852
-0.052340552
-0.023596045
