-0.0018687827
0.004400309
0.04634726
0.058803104
0.06321126
0.034084346
0.040729262
-0.028080825
-0.0039141104
0.06397399
0.06472191
0.0238429
0.05810016
0.009915159
0.06068928
0.044031043
-0.005679258
0.033626437
-0.03735727
-0.050110944
0.025878144
0.07863791
0.07305518
0.04997361
0.036675166
0.023600118
0.008015393
0.043772347
0.07331774
0.032694463
0.046834644
0.01944509
0.043515824
0.080770165
0.04628527
0.030110767
-0.032715738
-0.034302518
-0.01484151
-0.07959948
-0.012810549
-0.032774992
-0.009905195
-0.0148248505
-0.01317459
-0.005278438
-0.015366123
-0.002510645
-0.014267241
-0.007284518
-0.025197996
0.030994201
-0.022885198
-0.060918737
-0.025173485
-0.028911326
-0.0043000863
0.012295019
-0.046178687
-0.011726415
-0.004568261
-0.028217606
-0.04137472
0.014390507
0.007909185
-0.0014545204
0.0039446284
-0.019375695
-0.014854874
-0.0099051315
-0.009491148
0.0036901901
-0.01262761
-0.029632874
-0.0039376374
-0.004544841
0.007063108
-0.04457931
-0.009228758
-0.010509415
-0.018797714
0.024580864
-0.010584259
0.004449518
-0.028656194
0.037181962
-0.01226969
-0.0024136072
-0.0026415559
0.0038127657
-0.006048795
0.008645508
0.02408978
-0.0038329945
-0.05778666
-0.01975938
-0.010903231
-0.0310915
0.014722375
0.017846355
-0.03979325
-0.012264042
-0.013534204
-0.015346107
-0.009774595
-0.018681489
-0.00020088576
-0.0009898634
0.0055028982
-0.01379319
-0.031581394
-0.0051836106
-0.05144817
-0.032014333
-0.014433095
-0.027134337
-0.007166709
0.0020785583
-0.007493312
-0.0071963896
0.038788747
-0.014366117
-0.024954885
-0.03459408
-0.013598117
0.017651733
-0.01445571
-0.0020464296
0.0027021305
-2.790879e-05
-0.017582815
0.0010006836
-0.029982818
-0.010532018
-0.0752131
0.0015700633
0.0040014237
0.02393504
-0.016079038
0.018145496
-0.03305008
-0.014176665
0.0067891595
-0.010120931
-0.018269107
0.0024486321
-0.043504745
-0.0022928764
0.0038983305
-0.008163606
0.0023971957
0.020553503
0.0127907125
0.006934525
0.03621465
0.004541601
-0.004822974
-0.05786294
-0.011471883
-0.016128194
-0.01801095
-0.030908223
0.029742926
0.009545441
0.004958149
0.0010889298
-0.0021868278
-0.0063156346
-0.00086505804
-0.0059936605
-0.037726626
-0.025890697
-0.017249009
-0.06553503
-0.03651019
0.011220194
-0.0041101985
-0.01357402
-0.009677584
0.020787062
-0.00075646245
-0.028488927
-0.0011911638
-0.04015204
-0.07190239
-0.020545676
-0.00934607
0.0019087566
-0.0228662
-0.004051
-0.008359072
0.0015510959
-0.01357875
-0.048673883
0.011442601
-0.061111696
-0.065277226
