0.019596333
-0.0058246274
0.03620217
0.07777494
0.042818103
0.058100063
0.01167052
0.005633772
0.003658819
0.065552786
0.07183089
0.034969043
0.062008362
0.022187887
0.07098043
0.052616555
0.013717054
0.03209675
0.0050372756
-0.0007397561
0.043786213
0.06922338
0.09068792
0.04150451
0.036852244
0.02275703
-0.0031662928
0.052482713
0.08613477
0.031812254
0.04601403
0.02476928
0.05044665
0.043194253
0.047112204
0.03561891
-0.006560257
-0.0394117
-0.007954921
-0.027803311
-0.028584538
-0.0060658716
-0.000550368
0.021238226
-0.01824009
0.016497113
-0.028608881
-0.004807094
-0.0029969758
0.0020287812
-0.004559278
0.047178533
0.012460635
-0.012772128
-0.013498504
-0.0034930687
0.02120639
0.036692884
0.009631836
-0.008391651
0.0061488817
0.009279114
-0.03159154
0.029694805
0.018471112
-0.020691602
0.040530387
-0.011882295
-0.00946258
0.010352143
-0.0066483086
0.03894902
0.011923282
0.01498151
-0.0010930069
-0.005678881
0.041686878
0.00036105112
-0.0013899567
-0.004143256
0.020163886
0.027091337
0.0073086615
0.008394048
-0.02165818
0.06085225
-0.03355698
0.030453872
-0.019201986
0.020718196
0.010468762
-0.02366716
-0.0028385355
0.0073106545
-0.012301952
-0.017292514
0.004434521
-0.007575745
-0.004771325
0.056101564
-0.0055521703
-0.0010144016
-0.00976546
0.014394179
0.040178597
0.013489971
-0.00078493333
-0.010306372
0.025072828
-0.0035510391
-0.008311085
0.002325873
-0.0027233015
-0.0062223487
0.0038407003
0.014783891
0.01764016
0.02556984
-0.015900197
-0.020456195
0.07167804
-0.0046680924
-0.020022938
-0.017638702
-0.0114805
-0.001100528
-0.013082057
0.020769682
-0.0072403904
-0.011331789
0.0072372286
0.043968555
-0.03930008
-0.0011845628
-0.038992412
-0.00372634
-0.003553827
0.010396947
-0.0020310637
0.039290562
-0.010517828
0.0055776658
0.0069633643
-0.0141362725
-0.02513805
-0.0057453876
-0.012066091
-0.012262281
0.028916745
0.02753142
-0.016158126
-0.009813471
0.0009429625
0.0007621283
0.062303893
0.024482762
0.0042109382
-0.011274904
-0.0073805815
-0.009402306
0.004903169
-0.0033691505
0.0028871996
-0.0035486768
0.004547679
0.030961234
-0.0106373215
-0.00224492
0.021147478
0.033202555
-0.01037897
-0.022798857
-0.008559863
-0.022367314
0.00818953
0.015037951
-0.0011957092
0.0094276685
-0.009213745
-0.0015146005
0.018565413
-0.017575303
-0.013845999
-0.010855239
-0.024041666
0.012135235
-0.021098023
-0.010080095
0.03174471
0.0042695315
0.0106443325
0.015772024
0.017867824
-0.012864892
-0.018507117
-0.018283108
-0.023477057
