-0.104042485
-0.086268544
0.016087877
-0.052456837
-0.05034276
-0.046753358
-0.005351382
-0.014402357
-0.09547947
-0.10250386
-0.082395874
-0.030658452
-0.09173875
-0.036416978
-0.16144705
-0.112727426
-0.098138556
-0.12814233
-0.066843435
0.027889846
-0.06057691
-0.08637308
-0.13216874
-0.065868035
-0.0662217
-0.03210027
-0.1684373
-0.02776221
-0.106443845
-0.0042346306
-0.14016338
-0.037735138
-0.07515466
-0.092605464
-0.030133594
-0.02282011
0.08228114
0.029605532
0.10277196
0.18762198
-0.1434829
-0.08503625
0.047956347
0.08465554
0.009515689
0.0080440035
-0.12247147
-0.105600156
0.023046324
-0.023893032
0.04302175
-0.028077265
-0.21777566
-0.059617896
0.049087346
0.037437662
0.08576542
0.018781882
-0.03926459
0.09297709
0.06769317
0.0005672013
-0.07141866
0.001957022
-0.012896036
0.046236064
-0.0052134222
-0.030704373
0.14098443
-0.008373942
0.037624326
-0.011286219
0.022981144
0.018659456
0.005689752
0.09450858
-0.026511157
-0.06714073
0.01344567
0.09666998
-0.00227339
0.05927743
0.025734875
-0.017247947
-0.043224305
-0.022328064
-0.116385
0.061415058
0.07386361
0.07432972
-0.0031811602
0.074909985
0.099761054
0.15656549
0.0416413
-0.041112
0.0014984091
0.01902192
0.045359127
-0.018315233
-0.11186585
0.09258118
0.0977616
0.06228323
0.014790834
0.0061597964
0.027024304
0.06568249
-0.0007369018
0.089901574
0.15763564
0.09223349
0.013118181
-0.059194755
-0.00030606877
0.077816054
0.00081541564
0.036438644
-0.029876674
-0.027064666
-0.015194514
0.14939457
0.10690311
0.028920079
0.047668673
0.021071227
0.10472614
-0.0132568255
0.11184684
-0.0046812375
0.00013441758
-0.001193027
0.13702956
0.16433792
0.09735873
0.033419553
0.028871903
0.048790388
0.07210644
-0.031052489
0.045697056
0.057385
-0.0025782855
0.029265847
0.064559266
0.20145844
0.03414586
0.14144617
0.005863926
-0.012036267
-0.033422798
0.04814903
-0.04718895
-0.06433314
-0.039733708
0.15605979
0.14397112
0.043246225
0.044173084
0.15852983
0.06481603
0.014905494
0.10049787
0.10188498
0.06957987
-0.0039043734
-0.0033433838
0.089307986
0.13217436
0.004831897
-0.05958401
0.07506463
0.05923746
0.07986446
0.017709427
0.09913995
0.13935679
0.013869624
0.0863451
0.1306201
0.00074525917
-0.01853856
0.05597901
0.067371115
0.09729195
0.12841623
0.15250209
0.103486486
0.01684621
0.10482578
0.045110196
0.088668324
-0.018509505
-0.048669346
0.005061947
0.047348004
0.07944356
