-0.094083674
-0.11998791
-0.07651625
-0.076513246
-0.10748545
-0.088166825
-0.069257185
-0.11073619
-0.08208303
-0.14232221
-0.123245396
-0.116659075
-0.17373528
-0.14162576
-0.1752961
-0.18105902
-0.087839805
-0.22479482
-0.100123316
-0.12301159
-0.09487761
-0.1304227
-0.1804446
-0.10655571
-0.1264461
-0.06648923
-0.15899755
-0.14811252
-0.11496804
-0.13118021
-0.16857955
-0.1943247
-0.12674835
-0.16198218
-0.16147114
-0.09646413
0.03854397
0.12314279
0.013016876
0.16512759
-0.01618235
0.054696005
0.010809819
0.0053542797
-0.019833516
0.020731198
-0.0980102
-0.05139134
-0.045632258
-0.0072869714
-0.025096424
-0.034855936
-0.06651964
0.0014884452
-0.03551023
-0.0070553776
0.0031927042
0.002916726
0.054929845
0.06415735
0.0019765715
0.016823966
0.012604869
-0.031197447
-0.030189024
-0.050923016
-0.011185345
0.024027994
-0.015809473
-0.034372732
-0.012535778
-0.010232159
-0.0032087683
-0.018259937
-0.0013129064
-0.03446641
-0.04172649
-0.03306144
0.013212252
0.031842
-0.014276981
-0.01822527
-0.014142575
-0.04566197
-0.08346572
-0.027380703
-0.017026315
-0.010917295
0.015512064
0.00086126267
-0.016809797
0.07554068
0.012286471
0.051629093
0.03861967
-0.06308623
0.00076254184
-0.008423549
-0.019761523
-0.024856703
-0.041989084
0.042110037
0.039369386
0.0016613059
0.020756058
0.04559659
0.007540619
0.008349101
0.002790874
0.05536128
0.017303206
0.019993283
0.022522943
-0.012193252
-0.0014979915
0.007523675
-0.013544347
0.021052903
-0.022633841
-0.020342648
-0.019738274
0.016032796
0.0010138993
0.035691936
0.02396808
-0.0049573416
-0.0021483235
-0.023345975
0.00022723596
-0.029711021
-0.003244255
-0.0054998416
0.12565236
0.06324235
0.10918817
0.0035327917
0.005200525
-0.02999774
0.0024936814
-0.044231467
0.0140378475
0.00023378865
0.008039372
-0.02214829
0.013138815
0.022181869
0.01847963
0.036332093
-0.002171576
-0.009826591
-0.11119604
-0.066026084
-0.11362306
-0.06402033
-0.059930738
0.12179318
0.028678155
0.029922837
0.055872113
-0.0013687576
0.0028232927
0.02039525
-0.010960501
0.048757013
0.013167988
-0.006602076
-0.046701632
0.0043656128
-0.005288705
-0.0026048599
0.01862238
0.027060641
0.026179802
0.101280235
0.017064443
-0.023697052
0.04527594
0.0038060716
0.0070275217
0.013558773
0.013053353
0.011683919
0.059340965
0.050382547
0.098543085
0.012252414
0.0052577616
0.0070482832
0.027844928
-0.011688157
-0.022109807
-0.04475814
-0.028812675
0.013150772
0.016765684
0.0012119971
0.09339159
