-0.057754714
0.017939063
0.058326147
-0.0815861
-0.04655566
-0.070566066
0.014726332
-0.009157604
-0.029047968
-0.09723298
-0.10148868
-0.0050249156
-0.06274459
-0.009540788
-0.14133225
-0.088759184
0.029523987
-0.06170608
-0.01841329
-0.042983185
-0.07838589
-0.084883325
-0.08987391
0.006823333
-0.02444447
0.015435453
-0.02652506
0.06304633
-0.10639755
-0.040796395
-0.09834574
-0.053846546
-0.11044351
-0.11346638
-0.006819251
0.00034394555
-0.010519451
-0.07798445
0.03904281
-0.03030953
0.031691626
-0.031139323
0.006370045
0.00982791
-0.042043857
-0.056120597
-0.023041967
-0.048164945
-0.110611394
-0.08593573
0.09221422
-0.057216365
-0.014018724
-0.00045452747
-0.03236911
-0.03323958
0.0873168
-0.051183783
0.038943227
0.0680167
0.03503899
-0.030690676
0.014503779
-0.07818945
0.087891355
-0.008242867
-0.04447468
0.021422105
0.058039386
-0.06121909
0.012038427
-0.048051808
0.0006576641
-0.0059970003
-0.014439958
0.07084963
-0.034804005
-0.0066952473
-0.01606981
0.031247213
-0.027857848
0.019175567
0.053023446
-0.17049855
-0.01264631
-0.044548728
0.025710652
-0.043098755
0.035885062
0.13498421
-0.04676185
-0.005375655
0.14827503
0.17511527
-0.034616053
0.005546245
-0.07738589
-0.010883986
0.051517297
-0.047971483
0.01017374
0.08674665
0.04999893
0.026437225
-0.04503551
-0.014585944
-0.0026620864
-0.013836765
-0.037719145
-0.005417296
0.0071196654
0.11645286
-0.02370448
0.03823032
-0.019914092
0.0368928
-0.027259972
0.048549984
-0.104510464
0.09939928
-0.044157606
0.062067494
0.11855145
-0.0032899282
0.03458221
-0.014587717
0.1697282
-0.0264128
0.016150989
0.079400174
-0.052505296
-0.021926753
0.039930508
0.13842022
-0.015324164
0.0053137904
0.034182824
0.062085517
0.071833245
-0.053079132
0.08255993
0.026225993
-0.008458194
0.041887023
0.037325617
0.14149424
-0.043426666
0.08974481
-0.025620842
-0.015284343
-0.10763046
0.044695508
-0.08003219
-0.10567834
-0.058210813
0.07554977
0.16711584
0.002618653
0.0667471
0.22186793
0.06427615
-0.031554356
0.14252977
0.1705927
0.08017105
-0.038146064
-0.0070160204
0.05192364
0.17842722
-0.03781482
0.008086461
0.0019059964
-0.022236992
-0.02538161
0.016228713
0.122011095
0.0455314
-0.031119242
0.11117706
0.17849989
-0.0072420393
-0.008064543
0.13050649
-0.020616228
-0.023854498
0.013538909
0.16392392
0.0611497
-0.04270013
0.08376087
0.12630348
0.12837249
-0.029149579
-0.05519873
0.073358744
0.018445317
-0.035209116
