-0.23911867
-0.26647875
-0.17552365
-0.1938871
-0.1821236
-0.15929836
-0.16136834
-0.25084072
-0.28071705
-0.23278745
-0.20022145
-0.22512245
-0.20508629
-0.21201965
-0.1610581
-0.23777354
-0.26770607
-0.29876956
-0.22260348
-0.25026345
-0.17956531
-0.23902489
-0.21400905
-0.19369881
-0.18991756
-0.15338098
-0.28032067
-0.21081991
-0.20305908
-0.2117095
-0.2064822
-0.26369977
-0.15081662
-0.21604869
-0.20003916
-0.22846122
0.043748736
0.035903223
0.15782179
0.111163355
-0.005232043
-0.07879516
0.09017925
0.10677886
0.019360496
0.013190914
-0.07809752
-0.0037533767
0.047508806
0.11201317
-0.0014567357
-0.029580005
-0.027683549
0.041957688
0.08242227
0.019334326
0.11424816
0.01785122
0.024785053
0.015287194
0.2307503
0.062326554
-0.05935392
0.17133467
0.03973716
-0.016711038
-0.042522974
-0.03868646
-0.025944363
0.17494546
0.03446968
-0.011283867
-0.10082204
0.07502185
0.14080697
0.08102237
-0.029534604
-0.09446819
0.2781705
0.0008297843
-0.030017436
-0.068723805
-0.058624264
0.14083338
-0.059954833
-0.014610366
-0.07192961
0.1902251
-0.0023007016
0.10347199
-0.014575354
-0.0051445877
0.22376122
0.0693026
0.05303816
-0.05688173
0.14032538
-0.007870841
0.14225824
-0.018383408
-0.049640533
0.08689158
0.04521524
0.22578701
0.033436872
0.0036781272
0.21138681
0.11159162
0.010487753
0.018449241
-0.003175616
0.22699632
0.035317186
-0.039654594
0.30407324
-0.027960217
-0.030493539
0.011324467
0.18709417
-0.03405987
0.010153248
0.0828557
0.323459
0.0843945
-0.066445954
0.2743396
0.031816106
-0.034320135
-0.04763563
0.049494337
0.15420967
0.007077443
0.11008901
0.24361646
0.12139396
0.092435226
0.062424615
0.16124375
0.08381373
-0.022242675
0.059971485
0.35177025
0.024783356
0.034314122
0.22541602
0.14285715
0.051052462
-0.15910468
0.37510565
-0.046290256
0.0038508186
0.012231967
0.032638334
0.06930564
-0.019485876
0.110519044
0.30213854
0.08571858
0.029529072
0.11793026
0.25002882
0.06648925
0.15636608
0.10521302
0.14574307
0.022560434
0.016818574
0.22134504
0.16530848
0.037602253
0.014409943
0.15292893
0.11477456
0.08907844
-0.004310094
0.1823762
0.15052786
0.037491977
0.25111222
0.16512738
0.051177718
0.012598231
0.15786833
0.12948231
0.10236585
-0.00912274
0.13699831
0.22485338
0.044720557
0.15661208
0.14445241
0.13508214
0.009271968
0.02658387
0.16228011
0.11662671
0.09807513
