-0.2749712
-0.253308
-0.21683283
-0.24541233
-0.24158269
-0.2262779
-0.23807068
-0.2938678
-0.24271606
-0.2573388
-0.20159678
-0.24464594
-0.23063068
-0.27231786
-0.18468395
-0.26726872
-0.30726546
-0.28046635
-0.2317768
-0.24976961
-0.22675462
-0.26824498
-0.21541354
-0.21297
-0.17323048
-0.20268777
-0.27385166
-0.27453753
-0.23481135
-0.29342788
-0.26126704
-0.32261658
-0.20627941
-0.25186405
-0.25270697
-0.27587056
0.0013014297
-0.02770923
0.049874235
0.04014258
-0.055836223
-0.067581184
-0.010673174
0.0033323262
-0.06223196
-0.02846212
-0.101275295
-0.070671
-0.026948439
0.012370198
-0.08065975
-0.046352793
-0.1027654
-0.03950109
-0.025447084
-0.06346603
0.028819954
-0.020027278
-0.035988003
-0.039601747
0.17322314
0.027511152
-0.083630845
0.06832023
0.005492691
-0.08054574
-0.031882275
-0.084986486
-0.08647513
0.085105345
-0.0106750075
-0.031199023
-0.058836587
-0.01728256
0.0370957
0.012671719
-0.049715124
-0.10030697
0.18008818
-0.06690005
-0.04252554
-0.06128487
-0.066912256
0.059949193
-0.059324007
-0.019976987
-0.10500633
0.07648195
-0.055442765
0.044408698
-0.03226153
-0.027841771
0.111984886
0.023872957
0.026817206
-0.10378549
0.026323682
-0.05850815
0.05240696
-0.035507154
-0.08788509
0.01860531
-0.043395884
0.11891104
0.0029909222
-0.07096025
0.11409049
0.020101853
0.0028719679
-0.011914863
-0.024645617
0.13310277
0.009025027
-0.073221035
0.17453627
-0.068307936
-0.02445107
-0.050384853
0.07934118
-0.03539323
0.0025652866
0.05483083
0.23471934
0.07008145
-0.08817309
0.15939575
-0.044287402
-0.031961873
-0.023495035
0.026385184
0.06230912
0.01317964
0.06042384
0.17990877
0.08153809
0.018626269
-0.028492978
0.08298998
0.013384503
-0.01790969
-0.017506188
0.24779813
0.033528786
-0.04567778
0.13925847
0.066150516
0.031322625
-0.1604563
0.280489
-0.037249215
-0.05442764
-0.048495255
-0.042735286
-0.01037802
-0.029754775
0.04843633
0.20426817
0.077607565
-0.049135104
0.022680052
0.1684303
0.019398853
0.069942616
0.046799764
0.061520558
0.0068731694
-0.06377667
0.1516225
0.056856316
0.026888918
-0.038851798
0.084531
0.035511818
0.04024782
-0.031941403
0.11733189
0.06468238
0.0180956
0.13495709
0.12994058
0.052949645
-0.032735024
0.067161575
0.04360381
0.054371353
-0.043396305
0.06252478
0.1368211
0.022964764
0.059256252
0.047031328
0.04099865
-0.0006674556
-0.027610408
0.057573725
0.037898675
0.027225204
