-0.12198013
-0.13185948
-0.040186208
-0.069145985
-0.0584212
-0.034511823
-0.05778362
-0.11058179
-0.15981023
-0.12744528
-0.13677423
-0.13310087
-0.150699
-0.14251372
-0.10486074
-0.149944
-0.1588039
-0.21057357
-0.09648745
-0.10223691
-0.06717116
-0.17545836
-0.048807763
-0.0833402
-0.1060814
-0.027090013
-0.12597911
-0.12936738
-0.1529008
-0.16310662
-0.1530718
-0.15676254
-0.04845503
-0.11209352
-0.12638564
-0.10496183
0.22891636
0.18791775
0.30720782
0.009999807
0.14907001
0.06375404
0.24589647
0.30703798
0.21242799
-0.0790663
0.02378265
0.007337825
0.13154657
0.28786469
0.1150211
-0.12210399
0.06434695
0.1487966
0.21590638
0.14829053
0.3217704
-0.087273926
0.19330554
0.21215743
0.42559123
-0.039138522
0.07044734
0.37652805
0.20867786
0.111430414
-0.13713539
0.08185684
0.066664435
0.33542052
0.15271845
-0.15732685
0.02580147
0.16142836
0.28916422
0.18839428
-0.14593609
0.057544112
0.5095347
0.12114062
-0.1587234
0.06989053
0.040288556
0.3105964
-0.021661961
-0.05888371
0.104780115
0.39000696
0.15285043
0.2584233
-0.14546914
0.19810162
0.44834176
0.2623343
-0.06254612
0.034764536
0.32807755
0.14108013
0.2529945
-0.09186587
0.10600806
0.28598404
0.20004416
0.40344372
-0.04364767
0.10298485
0.3989229
0.23272179
-0.15063795
0.15860893
0.14997816
0.45619497
-0.07533155
0.17001395
0.5294969
0.14088432
-0.271695
0.10653346
0.3047423
0.03156398
-0.047114193
0.22245085
0.5034938
-0.052418146
0.04462975
0.48815307
0.09896918
-0.16150299
0.072531104
0.1439863
0.314587
-0.05955751
0.29423255
0.4490511
0.039049778
0.24126644
0.17103334
0.28331622
0.2568829
-0.11156666
0.18219738
0.55754864
-0.14060843
0.18105744
0.40633592
0.30981144
-0.06673686
-0.027278183
0.58833486
-0.27764654
0.06759394
0.07715557
0.08283654
0.20148312
-0.118631035
0.26329422
0.48984957
-0.03941872
0.20570448
0.30126065
0.44831288
-0.038127627
0.29827464
0.2525601
0.3382048
-0.09548095
0.13744089
0.37453377
0.3673192
-0.06574258
0.22145392
0.34857354
0.3106823
-0.0077137114
0.12731932
0.34627268
0.32721996
-0.08635783
0.43341076
0.37863696
-0.077833265
0.19046886
0.3733137
0.31766847
0.010069589
0.17786756
0.3303505
0.38857204
-0.050877903
0.28497088
0.3049827
0.27510962
-0.12276829
0.1864488
0.34891817
0.2946901
-0.016297238
