-0.11683375
-0.0770289
-0.115922205
-0.15818614
-0.09549266
-0.09016798
-0.12006544
-0.12373676
-0.08748708
-0.1482441
-0.1399314
-0.11422086
-0.06255527
-0.15784216
-0.046617273
-0.12172037
-0.14598429
-0.107895225
-0.12533325
-0.09923953
-0.088036455
-0.1401309
-0.112705074
-0.1072041
-0.118131146
-0.10712258
-0.10647355
-0.074132584
-0.07207765
-0.112433955
-0.0912694
-0.12728496
-0.11219803
-0.0707119
-0.12534691
-0.13269411
0.026073178
0.03333799
0.07265576
0.0028451225
-0.046062272
-0.04456901
0.020938136
0.011941545
-0.019861221
-0.08402921
-0.07500556
-0.03791127
-0.017602697
0.0165044
-0.038027223
-0.06115663
-0.0781434
-0.037234556
0.03192342
-0.056066483
0.018287314
-0.0497809
0.018402733
0.047926668
0.13355389
0.0038330723
-0.088946864
0.062476035
0.0046412973
-0.038839377
-0.019641573
-0.05113043
0.0020292737
0.028688736
-0.028341915
-0.05325037
-0.055986416
-0.0023615067
0.020089515
0.010013478
-0.0315439
-0.019595088
0.10932598
-0.0035188138
-0.05541121
-0.010107188
-0.066858314
0.051563315
-0.043077935
-0.00097532966
-0.030954402
0.03622834
-0.030584397
0.044089288
-0.048065677
0.045583993
0.1095843
0.031164559
-0.012846726
-0.032247514
0.03613302
-0.02119741
0.055130113
-0.011899531
-0.009242162
0.001991458
-0.05180864
0.07962107
-0.030388433
-0.0050036483
0.054509383
0.05724158
-0.045689464
0.021234453
-0.013084496
0.14328171
-0.04868068
-0.03427678
0.10385662
-0.027086036
-0.05296146
0.019733207
0.086815126
0.037604082
-0.003505132
0.09266588
0.20417565
0.03715288
0.0062484494
0.11980413
0.07212675
-0.017079987
0.06292206
0.05985595
0.05649989
-0.008567121
0.05737945
0.15976301
0.02437399
0.02940138
-0.009237621
0.021790266
-0.0203834
-0.04457499
0.13398896
0.21772173
0.0255073
0.005603273
0.075010076
0.046066746
-0.00081186637
0.13225108
0.24039902
0.049184453
0.002458042
-0.016935533
-0.014230734
0.029660251
-0.031511527
0.116477095
0.1223189
0.013829858
0.020564912
0.07936114
0.10694578
-0.008676291
0.07763087
0.109463476
0.057277694
-0.014482291
-0.020368801
0.09712793
0.10381103
-0.0057699075
-0.010844431
0.061337117
0.0699326
-0.006180192
-0.008938189
0.09164049
0.07952387
-0.047396205
0.16705029
0.17169528
0.023995355
0.0056272605
0.062472448
0.051323246
0.0026066583
-0.036005445
0.08882088
0.10254957
-0.0098507935
0.06547988
0.05473838
0.03801654
-0.028801493
0.008348988
0.052575905
0.02145926
-0.012939187
