-0.20734811
-0.21098539
-0.12654862
-0.14992116
-0.1438748
-0.089703746
-0.1356283
-0.1977341
-0.20175032
-0.20399497
-0.18692024
-0.18516037
-0.18355599
-0.19934191
-0.17537788
-0.22303787
-0.193124
-0.27930003
-0.16749552
-0.1801014
-0.15196292
-0.23449399
-0.2059342
-0.16087422
-0.16095181
-0.16223097
-0.21668087
-0.1890353
-0.17949991
-0.22298615
-0.2321609
-0.24985826
-0.121357776
-0.19013064
-0.17683104
-0.18877953
0.12553564
0.10342635
0.23575386
0.0665926
0.0117345
0.036518537
0.17468618
0.17696983
0.08194244
-0.03744019
-0.048134156
0.0099933725
0.086880855
0.19991244
0.039775606
-0.10068539
0.002549913
0.08482245
0.11478467
0.060410023
0.17966889
-0.046284776
0.10040962
0.061495133
0.34041584
-0.002586181
-0.037170894
0.26193324
0.119394764
0.017051222
-0.115212195
0.00028724433
-0.0067806477
0.26472643
0.096455075
-0.07694921
-0.027047057
0.12745622
0.22361839
0.15523787
-0.10832786
-0.022423116
0.40138948
0.034969233
-0.0907759
0.0010885306
-0.017433241
0.23369342
0.00596346
-0.07104182
-0.009740668
0.2588453
0.07448943
0.17255807
-0.08725622
0.050245076
0.33399704
0.16918167
-0.033555336
-0.054957863
0.19276294
0.056434345
0.19675145
-0.06991649
0.0124614425
0.17312112
0.10491902
0.29863515
-0.024799464
0.0466873
0.31645146
0.16849124
-0.06928919
0.11483789
0.085586585
0.36173084
-0.029749352
0.026585981
0.41427308
0.05875748
-0.09707222
-0.004325723
0.25644553
0.013251369
-0.06283077
0.12388558
0.42285648
0.020333705
-0.04194759
0.37199447
0.08575333
-0.10953055
0.00880908
0.12694792
0.22335345
-0.03240735
0.18581706
0.3477006
0.087295264
0.15961279
0.08939749
0.22097208
0.15511866
-0.09052457
0.048204403
0.45297304
-0.040408827
0.066286296
0.32551914
0.19485055
-0.017819991
-0.08132393
0.46800798
-0.09162687
0.046568424
0.04740919
0.057968367
0.14227013
-0.08527955
0.17786314
0.38635644
0.031741463
0.036649257
0.20607814
0.33037463
-0.0003439095
0.21103032
0.14903979
0.22287914
-0.055848356
0.071303494
0.3147402
0.24117306
-0.023117246
0.10068258
0.24561961
0.18997951
0.039527517
0.06184354
0.27236965
0.22330643
-0.024396269
0.31905895
0.25811216
-0.025619334
0.09689894
0.25535363
0.19967915
0.05023858
0.04022368
0.23078111
0.2947352
-0.0070666773
0.20608427
0.23930296
0.1891782
-0.07705811
0.07166387
0.25563407
0.19824235
0.029282242
