-0.24889441
-0.26988566
-0.22399339
-0.24407376
-0.2781382
-0.25291774
-0.2806565
-0.28712645
-0.22678316
-0.28667375
-0.25295192
-0.27335697
-0.27789274
-0.30174816
-0.18711203
-0.29299474
-0.283645
-0.24442422
-0.22323279
-0.269515
-0.27016112
-0.30140862
-0.22510193
-0.25050208
-0.19744891
-0.24615856
-0.25093937
-0.22348982
-0.2583183
-0.2552485
-0.2620785
-0.31304297
-0.2518036
-0.30009976
-0.26277542
-0.30712077
-0.048389826
-0.04750939
-0.01458973
0.0014446741
-0.086743735
-0.1289132
-0.09931698
-0.031702485
-0.07206561
-0.05270122
-0.0898864
-0.0797583
-0.088446885
-0.06569443
-0.09838183
-0.05141212
-0.111227706
-0.07362525
-0.04300423
-0.09909649
-0.047378935
-0.035824705
-0.028497394
-0.05682734
0.07880413
-0.018515803
-0.07008538
0.01834059
-0.048118275
-0.089195535
-0.069823444
-0.05964761
-0.06865649
-0.009931188
-0.052198566
-0.04487625
-0.10014345
-0.042241376
-0.05027614
-0.05305989
-0.06548757
-0.07323687
0.052145768
-0.063888974
-0.049081787
-0.091371775
-0.10155163
-0.010490372
-0.09033952
-0.042086657
-0.08345189
0.0026259655
-0.09367214
-0.026583746
-0.03371746
-0.04163054
0.051901434
-0.010126196
0.005328191
-0.09050024
-0.04456258
-0.11548787
-0.002574888
-0.051862147
-0.10765558
-0.038061723
-0.06380353
0.03514457
-0.022252258
-0.035998423
0.025043102
-0.005151486
-0.009083817
-0.012458837
-0.03682961
0.05362322
-0.0052520637
-0.11323446
0.132049
-0.0955897
-0.050610248
-0.033473074
0.021955265
-0.050264657
-0.019533927
0.022795457
0.17578618
0.03289276
-0.098114565
0.07118255
-0.08269633
-0.040818363
-0.05460903
-0.022386482
0.005347547
-0.020333903
0.056588825
0.13987388
0.041932978
-0.0183022
-0.040502504
-0.0006565605
-0.027439365
-0.037770737
0.05557324
0.18019076
0.02211958
-0.052856453
0.06597705
-0.015460538
0.0057607167
-0.093894005
0.21147722
-0.030122533
-0.08097827
-0.08411976
-0.10706231
-0.05315249
-0.037457034
0.019112634
0.13165547
0.037695296
-0.047915816
-0.011555914
0.07167687
0.014082916
-0.0017944021
-0.024031976
-0.0014106603
0.0013116215
-0.024950378
0.05276107
0.010875999
-0.0038565728
-0.015005051
0.015156178
-0.014439963
0.0022369332
-0.06164493
0.047705416
0.016576074
0.0030118523
0.0924566
0.0594604
0.03567969
-0.047556043
0.020318817
-0.009959919
0.03096627
-0.05815017
-0.004404668
0.055507753
-0.006433661
0.015475738
-0.016569039
-0.017161055
-0.027584823
-0.03676964
0.024018776
0.01349023
0.0074337893
