-0.13536707
-0.10526722
-0.22031206
-0.06166005
-0.22788274
-0.20533447
-0.22902882
-0.1572066
-0.12851351
-0.088125244
-0.24671595
-0.2092397
-0.2539784
-0.18912345
-0.2449618
-0.23735528
-0.1657584
-0.21810065
-0.140009
-0.16445449
0.12473271
-0.26914513
-0.20191436
-0.24727617
-0.21094513
-0.20036657
-0.15033618
-0.16790637
-0.08674836
-0.17320922
-0.15032421
-0.16165397
-0.09612531
-0.11801743
-0.09928259
-0.1079784
0.37270555
0.31498817
0.62379545
-0.01923763
0.16113676
0.16236575
0.2787843
0.39098674
0.2735212
-0.12134771
0.031227993
0.008042476
0.06372461
0.31227365
0.14152838
-0.11532327
0.071180485
0.16474804
0.24712768
0.24994303
0.33557963
-0.09666057
0.23775442
0.31261364
0.6662081
-0.07765695
0.09513905
0.43005282
0.25924578
0.17262812
-0.0020504557
0.09219807
0.14833857
0.45732835
0.17575164
-0.19668601
0.05943397
0.17481044
0.3320048
0.1467374
-0.07177765
0.26705703
0.57402486
0.5469734
0.33395797
0.27140975
0.22869006
0.40633842
0.28792268
0.16659631
0.07027306
0.46883947
0.14331312
0.22901401
-0.1651225
0.23874636
0.5529635
0.4146588
-0.120956324
0.0032576493
0.24746278
0.081455916
0.20120011
-0.08156014
0.0887044
0.24926679
0.20291597
0.4553056
-0.11641806
0.069991015
0.505355
0.1731342
-0.24859814
0.33050242
0.43268248
0.72568905
-0.13703325
0.19136465
0.6113992
0.33761653
0.07031906
0.23236541
0.4327926
0.15517823
0.1502575
0.4566069
0.70240396
-0.0063268836
0.35999238
0.5730882
0.6534453
0.3276313
0.15922263
0.02745163
0.33842608
-0.080133736
0.38765323
0.7236624
-0.0890538
0.2046202
0.17736502
0.32652453
0.2167847
-0.1397428
0.19795877
0.76840067
-0.040464077
0.21144876
0.5127952
0.44136986
-0.1474098
0.23361757
0.7729858
-0.06456423
-0.07137565
-0.034821674
0.031124167
0.14709951
-0.116898075
0.4575095
0.71525455
-0.10152702
0.16825436
0.33920297
0.5563814
-0.11754645
0.26589566
0.1615881
0.35288665
-0.13864844
0.15672876
0.54457897
0.3516876
-0.12147785
0.22571272
0.4317982
0.43151385
-0.09093523
0.19688454
0.45096022
0.40900597
-0.13020155
0.5416556
0.50030375
-0.0121446485
0.21126626
0.46180394
0.4243256
-0.07130346
0.16023533
0.34351498
0.5040686
-0.094483055
0.3054124
0.35011345
0.2352362
-0.16595145
0.18954138
0.40978348
0.37912324
-0.095277205
