-0.114275776
-0.13469782
-0.17645112
-0.15214258
-0.12847416
-0.18217078
-0.098214716
-0.18494463
-0.17735219
-0.15306169
-0.16059057
-0.18976752
-0.15641639
-0.23730417
-0.1316435
-0.16531354
-0.17979799
-0.17297742
-0.13354805
-0.19063804
-0.13463606
-0.13398942
-0.124411
-0.1288902
-0.13463886
-0.15845427
-0.09417765
-0.2041955
-0.14531942
-0.11680822
-0.19147918
-0.15996289
-0.185297
-0.13117507
-0.16256516
-0.13571893
0.023980618
0.0064887824
0.06423158
-0.045381974
-0.07448914
-0.06039351
-0.010294623
-0.00014775831
-0.042609178
-0.11908904
-0.062487304
-0.049286805
-0.043370225
-0.02551281
-0.06661968
-0.122105695
-0.07804527
-0.034011077
-0.0016404876
-0.025353914
-9.2161805e-05
-0.09821774
0.0043994617
0.0048694685
0.102464825
-0.055415656
-0.07595935
0.06207105
-0.0020780957
-0.033840504
-0.059617657
-0.02097526
0.00728799
0.020403173
0.010982
-0.07794821
-0.042557567
0.0072108647
-0.0074795648
-0.01582876
-0.14922257
0.0034537506
0.09708764
0.035381064
-0.044404756
-0.031305745
-0.0065200864
0.032868274
-0.068912074
-0.05428686
-0.034702837
0.02583317
0.011505738
-0.020957904
-0.058478236
0.021353444
0.10336535
0.054303877
-0.056157388
-0.07811137
-0.0019231946
0.0050743287
0.029947102
-0.10729256
-0.03675507
0.02284776
0.01910482
0.07541161
-0.058687687
-0.0052133985
0.05418642
0.04482526
-0.07421912
-9.6001146e-05
-0.005509768
0.13519154
-0.08826494
-0.071565025
0.11063698
-0.046391774
-0.06538252
0.011942297
0.08514337
0.034640774
-0.04042609
0.09610427
0.19083479
-0.015106554
0.029519234
0.092695825
0.027061353
-0.0127848955
-0.0022345786
0.042880714
0.046584208
-0.037828654
0.09958034
0.16616319
-0.0039402307
0.0049440083
-0.057283863
0.021408767
-0.031081514
-0.104253836
0.10399768
0.2264727
0.005475427
-0.0047943643
0.09259803
0.057447143
-0.02948224
0.1785568
0.23891844
0.05085285
-0.03887215
-0.05062361
-0.023505304
-0.021063583
-0.08992513
0.1016707
0.16987592
-0.029509898
0.06509911
0.052731555
0.09609686
-0.055179976
0.053791974
0.050852362
0.025759056
-0.05292572
0.0055204383
0.100132905
0.039961156
-0.044867042
0.0016729379
0.052442208
0.035901904
-0.03574619
0.0036175672
0.11082676
0.06556571
-0.04967329
0.15857689
0.12850708
-0.0316787
-0.014737276
0.031319823
0.03555671
-0.03714751
0.03432855
0.047810737
0.068005204
-0.064243235
0.03601504
0.05429432
0.053546764
-0.07942416
0.003916434
0.060325578
0.020772869
-0.042244025
