-0.118466556
-0.115343474
-0.12767988
-0.14763592
-0.13468552
-0.13279256
-0.1185871
-0.13733846
-0.15296352
-0.15119475
-0.20111012
-0.13342826
-0.11301331
-0.1616802
-0.13850944
-0.12640832
-0.1820334
-0.16383453
-0.074345015
-0.09222481
-0.15543544
-0.12200907
-0.11568421
-0.10313931
-0.12671992
-0.15831392
-0.121993855
-0.1556463
-0.12797433
-0.14778283
-0.16872036
-0.21226634
-0.16121027
-0.13095866
-0.12671499
-0.131267
0.0033330785
0.021813743
0.042147525
-0.0723108
-0.086905815
-0.081899814
-0.012666246
0.00903192
-0.020718873
-0.1356551
-0.07382261
-0.049824495
-0.031714752
-0.016199384
-0.07120637
-0.12457002
-0.09972214
-0.04487173
-0.022886984
-0.041044094
-0.033453822
-0.12273193
-0.03555085
0.029064309
0.124661565
-0.050854906
-0.049227614
0.06745496
-0.0013999927
-0.049468596
-0.098037556
-0.0044266814
-0.012678282
0.04210688
-0.0050307033
-0.09134299
-0.0591033
-0.011838218
-0.014336898
-0.002398686
-0.14522034
-0.008711693
0.10742268
0.008007081
-0.06433794
-0.022741852
-0.055002443
0.013329422
-0.016944688
-0.086910345
-0.05945661
0.031221379
-0.031668093
-0.024986148
-0.1271352
0.0053379536
0.112166114
0.053383276
-0.09157778
-0.078578375
-0.0012143839
-0.008575778
-0.03594445
-0.089172475
-0.038650725
0.0025318426
-0.020119568
0.047968525
-0.10879285
-0.018775223
0.08772769
0.043842506
-0.112050116
0.026125904
0.017885946
0.13665602
-0.070641115
-0.063252434
0.11878626
0.019925185
-0.12849702
0.009815794
0.07405729
0.00548274
-0.053362418
0.07384914
0.15556811
-0.052483786
0.037702117
0.14092991
0.056228295
-0.07500076
-0.034382954
0.009878981
0.050539546
-0.096518
0.10914836
0.13932179
-0.0012541623
-0.03829306
0.010786305
0.016560521
-0.024686333
-0.13093065
0.08858061
0.22714669
-0.015913486
-0.007637189
0.069143474
0.05641882
-0.06959754
0.17491718
0.22660983
-0.053995963
-0.03166103
-0.0315208
-0.053027693
-0.03740275
-0.11734075
0.10788517
0.13359727
-0.00434675
0.01959313
0.03904851
0.11720072
-0.050540555
0.017942268
0.06260894
0.007845275
-0.06806739
-0.039447397
0.073194064
0.06349562
-0.0471233
0.017473506
0.08741096
0.06767084
-0.058310084
0.005888536
0.070717156
0.038131345
-0.09309263
0.18681434
0.13016132
-0.029320458
-0.056199875
0.021678923
0.004530784
-0.054464687
0.003016782
0.05918701
0.10034243
-0.090826705
0.057875685
0.055083085
0.0625455
-0.09271622
-0.013873966
0.03189656
0.016158212
-0.0653292
