-0.1548317
-0.18340346
-0.20280677
-0.18964992
-0.17389573
-0.16128018
-0.20615718
-0.23157865
-0.15196985
-0.21866071
-0.19467205
-0.16399659
-0.19377975
-0.23098986
-0.17260285
-0.1872934
-0.23707998
-0.22302446
-0.18462035
-0.15352605
-0.18240488
-0.2203372
-0.19365756
-0.17171668
-0.19050537
-0.21439333
-0.101053916
-0.20959607
-0.17136846
-0.15844724
-0.21982473
-0.22631562
-0.24277933
-0.1761168
-0.18909855
-0.1850239
0.0049115736
-0.0029029413
0.037435696
-0.113403864
-0.07584917
-0.060587104
-0.051207982
-0.031780027
-0.060585137
-0.14192362
-0.052825868
-0.10035545
-0.06702274
-0.059150282
-0.058667522
-0.14993075
-0.04206788
-0.0868974
-0.06854485
-0.096596666
-0.04067722
-0.15689835
-0.007369517
0.005935459
0.0681205
-0.062334735
-0.089046784
0.017071513
-0.040971775
-0.048566885
-0.13331443
-0.028720928
0.015357492
-0.0033234607
-0.02842221
-0.14201652
-0.09229015
-0.025662502
-0.043405216
-0.045546535
-0.15213929
0.009917573
0.06540902
0.03225419
-0.06781035
-0.06823636
-0.03408345
-0.0149309775
-0.056188997
-0.11758318
-0.051021036
-0.008248157
-0.041766226
-0.026611937
-0.14136088
-0.030661363
0.058130596
0.013386368
-0.07414354
-0.08648429
-0.04783914
-0.07358439
-0.010630089
-0.13198003
-0.06270954
-0.022072861
-0.041674457
0.0062826527
-0.09014732
-0.0127489725
0.057693854
0.025423678
-0.115619116
0.015006231
0.016049685
0.1016805
-0.0981797
-0.09523206
0.10346743
-0.06991179
-0.104918174
0.027675748
0.053796668
0.022301655
-0.07955779
0.06479182
0.16238324
-0.037589643
-0.006804637
0.05405909
0.054369193
-0.07886375
-0.01183955
-0.0029320226
0.01686486
-0.10396766
0.07744591
0.18720828
-0.032867078
-0.03629462
-0.030364977
0.0022471878
-0.04472447
-0.14554147
0.10435551
0.21169747
-0.055207524
-0.0037089442
0.08997549
0.027790517
-0.10314622
0.18071726
0.20894842
0.029371927
-0.06591594
-0.03915222
-0.06432793
-0.03129526
-0.14235769
0.09328888
0.16058664
-0.065462716
-0.030077558
0.016723558
0.06027869
-0.08079147
0.043472387
0.011552681
-0.024975011
-0.09572904
0.0059379595
0.0674094
0.02482372
-0.0633072
-0.04558134
0.043083914
0.014394687
-0.08083601
-0.020086138
0.02999489
0.04159641
-0.1076881
0.12471798
0.12384963
-0.052001923
-0.030028097
0.048684195
-0.012402984
-0.10503215
-0.028250806
0.06281273
0.070185035
-0.097769015
0.03674302
0.013016832
0.032993194
-0.13896884
-0.012074245
0.0017958172
-0.026202265
-0.11053739
