0.018455314
-0.010475701
0.03795859
0.051141776
0.03925888
0.037313096
0.07513992
0.007975434
0.0046826247
0.060241368
0.07564363
0.023102462
0.056013595
0.029008042
0.06909419
0.062147066
0.01560912
0.07153636
0.035050772
-0.0065695816
0.039338093
0.07217333
0.05482605
0.035340358
0.052123334
0.036315553
0.0001798246
0.05114626
0.08760872
0.05029436
0.05167088
0.018319366
0.03541481
0.06271342
0.0452268
0.046129648
-0.010873406
0.005046926
0.02266569
-0.05604161
-0.0023301877
0.0017640674
-0.016705886
0.023351157
-0.02199578
0.01313353
-0.012656262
-0.029929092
-0.0017123783
0.020692762
-0.013095094
0.041818596
0.00330155
0.0024784477
-0.0095721865
-0.008987406
0.002206617
0.01636141
0.0132826585
0.059068836
-0.0075635994
0.0037927402
0.023207707
-0.010699877
-0.019432347
-0.006792677
0.030444039
0.014656028
0.025093032
-0.02530977
-0.023486719
0.010990584
-0.018534483
0.002871992
0.024376314
-0.00845802
0.027985025
0.005233183
-0.03007375
-0.05180321
-0.0069481884
0.012657447
-0.012574821
-0.009496454
-0.008234587
0.05117143
0.016506921
0.028718535
0.00021800605
-0.020875527
0.042780235
-0.04366795
-0.006953633
0.013395954
-0.0019732947
0.024387999
0.0052720373
0.010540703
-0.026606753
0.03002845
0.00069664913
0.018187422
-0.06843778
-0.0034414416
0.041234873
0.0004708965
0.0031547495
-0.02782821
0.020332467
-0.0181323
0.019073589
-0.028259944
-0.0084903855
0.03147713
0.02397722
-0.0019503814
-0.004898739
0.0056025065
0.010929443
0.012804963
0.037109118
-0.030802526
0.0068383575
-0.047221687
-0.0047234637
0.0071017034
-0.011231472
-0.0032353133
-0.02811519
-0.04775027
0.005971648
0.012531146
0.006137863
-0.007667074
-0.04378405
0.01696079
-0.028583223
0.0070080124
0.009694615
0.038718875
-0.0069915126
0.02213055
0.023830857
-0.038280815
-0.029322727
-0.010361465
-0.017306624
0.028311392
0.008887233
0.04550527
0.004930285
0.014715535
-0.012978168
-0.0077110967
0.061735753
0.0132006
-0.024962762
-0.026320511
-0.007472563
-0.028172689
0.0008638271
0.01607567
0.010693831
0.0020389268
-0.021513013
0.025602734
-0.012756249
0.016619507
0.015282572
0.033947393
-0.0022123945
-0.03361326
-0.046492394
-0.051983494
-0.025228914
0.025543952
0.013518029
-0.005594487
0.0075381743
-0.001786056
0.0054655797
0.029391196
-0.00036745984
-0.0068683103
-0.09571095
0.024503702
-0.029027129
0.021495
0.03216985
-0.024865897
0.019192427
0.008302845
-0.013458637
0.014320064
-0.020928415
-0.008498626
-0.05875861
