-0.1861978
-0.26505977
-0.10975692
-0.23123723
-0.12637997
-0.1005083
-0.14338401
-0.13280477
-0.1823274
-0.20026565
-0.16897476
-0.18456472
-0.13854589
-0.19575456
-0.19514434
-0.1838618
-0.20782751
-0.20326374
-0.18949631
-0.24555767
-0.13466957
-0.05387591
-0.12156817
-0.14545874
-0.095966265
-0.06778749
-0.21492507
-0.109521694
-0.22577716
-0.14142604
-0.17226245
-0.13099374
-0.22735684
-0.32909483
-0.28384858
-0.15374254
0.07724363
-0.064980716
0.04882108
-0.23445055
-0.03725177
-0.09932276
-0.046136454
0.012154455
-0.0059340023
-0.22525792
-0.107008286
-0.15053664
-0.04061884
-0.046955336
-0.07042976
-0.19591881
-0.13625416
-0.0182293
-0.011482517
-0.08324953
-0.029457707
-0.22871296
0.022613097
-0.03700512
0.13318487
-0.21144626
-0.13989219
-0.18232368
0.010989656
-0.21501766
-0.0039020402
-0.23015188
-0.19205663
-0.20629807
-0.24690713
-0.07341544
-0.12587413
-0.13699129
-0.30305743
-0.2005698
-0.052010052
-0.13847293
0.26068878
-0.11415427
-0.18045898
-0.24018326
-0.19179757
-0.29531235
-0.13543676
-0.03802626
-0.313713
-0.22666699
-0.35369232
-0.19853975
-0.07849796
0.034527984
0.12639871
0.030164652
-0.18789354
-0.2507943
-0.1706905
-0.21371165
-0.12319046
-0.05040555
-0.31879684
-0.101512164
-0.29839644
-0.23122385
-0.06429705
0.056105047
0.008444918
0.111015
-0.22496216
0.0028367816
0.03832866
0.21208468
-0.21638294
0.0022429125
0.14827514
0.11315044
-0.16884224
0.04886284
0.061504856
-0.06357534
-0.15424605
-0.1289997
-0.22870342
-0.02460809
-0.12661268
0.22809756
-0.072605446
-0.18395922
-0.043928936
-0.044573974
0.122912
-0.16900773
-0.13054214
-0.18602198
-0.020996084
-0.20262563
-0.17764527
-0.11558961
-0.24065183
-0.0685543
0.0033687605
-0.17069262
-0.05795268
0.07120337
0.20093034
0.108468734
-0.22937867
-0.85570663
-0.25762218
-0.2597665
-0.12927006
-0.20401122
-0.13397741
-0.35556108
-0.08824637
-0.08510898
-0.16904873
-0.06312424
0.11315407
0.02553614
0.1895445
-0.20520483
0.05084061
0.08743958
0.14251229
-0.19494107
-0.009314604
0.08702481
-0.01766821
-0.20772833
-0.011474772
0.037171092
0.08475231
-0.2294309
-0.023108652
0.052795053
0.033139873
-0.21891256
-0.254092
-0.03232826
-0.049564037
-0.016508972
0.09710048
0.12400919
-0.22672465
-0.015994571
0.049014285
0.038016994
-0.20317602
0.10587847
0.3030137
0.11872216
-0.2003037
-0.018726213
0.02868236
0.14262843
-0.22194973
