0.029122882
-0.0392566
-0.010021971
0.022803947
0.048946925
0.03879172
0.019602122
-0.04168794
-0.0578695
0.055389695
0.03970558
0.03360748
-0.0036497482
0.01478763
0.048131704
0.026356263
0.02272248
0.0775502
-0.015244211
0.0023638122
0.032297485
0.059750903
0.08490005
0.0136342505
0.04373901
0.028938692
-0.017482616
0.02416945
0.06763519
0.04815223
0.047297124
0.041377805
0.04864846
0.05077661
0.054585807
0.02311197
-0.025031392
-0.0037183524
0.01150693
-0.1524235
-0.026323162
-0.026123699
-0.02188794
-0.019878663
0.0350418
-0.01955402
-0.012564755
-0.014277185
0.04460922
0.003873153
0.036946867
0.0046647293
-0.024568109
-0.04073726
0.009084829
0.012124869
0.00067366427
-0.017714342
-0.02392459
-0.013284121
-0.02221973
-0.062431455
-0.0012759106
0.035802346
0.019613972
-0.061210264
-0.010249693
0.011205834
0.00024329266
-0.030031867
-0.018151928
-0.028235352
-0.010229692
-0.008341848
0.019579537
0.016639588
-0.009735271
0.009166035
0.004717333
0.013258256
-0.013266745
0.0021163449
0.009413048
0.012860933
-0.026570302
0.029465402
-0.0071505927
-0.011289186
-0.011927059
-0.0033277196
-0.028714277
-0.00540548
-0.014042415
-0.017588394
-0.08531557
-0.023764163
0.004761492
0.008793772
-0.008298127
0.012085534
0.01574047
-0.027481409
0.014357357
0.021698428
-0.015068709
-0.010199221
0.006740392
-0.014335357
-0.061495353
-0.035787895
-0.023766268
-0.00080766587
-0.07835871
-0.025252976
0.023981567
-0.02602675
-0.015487166
0.022160925
-0.005426833
-0.005338887
0.010409416
-0.0043384475
0.00061915454
-0.08805297
0.0005890837
0.004334707
-0.012353761
-0.015110495
-0.023063675
0.0066142357
0.018757297
-0.022805078
-0.022928871
0.014779383
-0.107417874
-0.0067414045
-0.027970865
0.02352952
-0.0065374733
-0.00749143
-0.023946838
-0.020415137
-0.027276644
-0.053856514
0.009735965
-0.009992388
-0.049423076
-0.004267479
0.013694188
-0.023534212
-0.0045117657
0.0076843426
-0.0044312715
0.008732538
0.050634224
0.012807961
-0.01706821
-0.075952284
0.016670244
-0.032469388
-0.026489446
-0.04370219
0.022992292
0.0014840043
-0.00058738916
-0.059677504
0.005151349
0.0018619533
0.005560222
0.004697893
-0.02271632
-0.010120839
-0.015015478
-0.11228318
-0.009384125
-0.009593724
-0.046963874
-0.058032572
0.032032076
-0.0022274686
-0.03527958
-0.0053625465
-0.011174317
-0.051691726
-0.11028997
-0.002127238
-0.008129268
-0.03260486
-0.050458733
-0.0024347554
0.025956042
0.037607852
-0.011103046
-0.0020605493
0.009787833
0.024701992
-0.076202795
