4.7770285e-05
-0.008160022
0.020093193
0.053271256
0.051938366
0.04203717
0.024472116
-0.01714467
-0.005354289
0.05664236
0.06262125
-0.013479332
0.052084245
0.05268982
0.068352446
0.054602552
-0.011060768
0.014520475
-0.017717354
-0.035380088
0.018412761
0.06159208
0.07010652
0.035513356
-0.010044109
0.011846331
0.00022270891
0.047685668
0.075107716
0.007500973
0.052191235
0.0457571
0.04201024
0.03426926
0.04442584
-0.012566501
-0.020247972
-0.019121207
0.009852668
-0.12557405
-0.0059377034
-0.015412769
-0.018474886
-0.026366608
-0.011604567
-0.024694433
-0.05657616
0.0032880476
-0.023708241
0.024278313
0.047830597
-0.012823555
-0.026520176
-0.006323821
-0.020972256
0.0043298746
-0.016332552
-0.016675925
-0.056187503
0.026093164
-0.0061258515
-0.060294125
-0.029858593
0.022954538
-0.014000592
-0.023581453
-0.07747981
0.02186016
0.033147387
0.015934736
0.0034494605
-0.060265582
0.023482393
0.0140413605
0.009754868
0.037832487
-0.033858962
0.018245865
-0.013982017
-0.0666678
-0.027087016
0.04199391
-0.0009485025
0.021183278
-0.0020864548
-0.0063079265
0.022864299
0.02647957
0.019715613
-0.010606197
-0.06880809
-0.0060341973
0.0025856579
0.0077296654
-0.11822808
-0.008013713
-0.025362074
-0.02605487
-0.002184186
-0.015873305
-0.024766989
0.037029766
0.009507254
-0.0002344131
-0.06271561
0.02236349
0.00010839764
-0.02370257
-0.07455365
0.008163534
-0.008560738
-0.0010145444
-0.13647808
0.019607732
-0.013966263
0.0039045387
-0.04815474
-0.010926945
-0.012900584
0.005723318
-0.021267988
-0.040839717
-0.002058302
-0.120995626
-0.025258856
0.0057710605
0.0075250817
-0.06833568
0.027287832
-0.020392854
-0.019007994
-0.030211272
-0.0120739415
-0.016873756
-0.13952273
-0.0073945895
0.008551251
0.02574191
-0.014104958
-0.02726094
-0.019735558
0.008305986
-0.030756691
0.04408621
-0.032143574
-0.010469937
-0.06962548
0.003026146
0.0059014647
-0.035502937
-0.034320835
0.010357018
0.014215713
-0.012534232
0.02509092
-0.0037611972
-0.049037695
-0.11828814
0.017235594
-0.03257722
0.0026348764
-0.06360296
-0.01185165
-0.012480646
-0.014260552
-0.057512473
-0.026473
-0.0085618375
-0.02399963
-0.05565092
-0.007988959
-0.054178625
-0.025969101
-0.102128096
-0.02167968
0.0030169135
-0.014181977
-0.08858146
-0.0062379716
-0.0050565703
-0.06730457
0.01796873
0.0037341807
-0.02816773
-0.1372116
-0.012481912
0.016031452
0.01517014
-0.06777199
0.0030323379
-0.016785473
-0.0014317371
-0.08601138
-0.0019531471
-0.04570722
0.012483887
-0.12074535
