-0.029376637
-0.017509142
-0.024279939
0.018934706
0.041285876
0.024261842
0.0060460814
-0.03733714
0.043677147
0.056000702
0.035882425
0.009242332
0.037280716
-0.019492047
0.024306342
0.042923782
-0.012080658
-0.0028279815
-0.016262814
-0.006899953
0.01155202
0.050054267
0.052445997
0.016213253
-0.006101245
-0.007277427
-0.023050435
0.020113092
0.05457807
0.013974758
-0.0007538449
-0.0029052382
-0.0031142205
0.028863983
0.018125342
-0.009532229
-0.037986502
-0.052087694
-0.009883534
-0.22072308
0.002876112
-0.10140857
-0.02135563
-0.05130898
-0.025601158
-0.116089985
0.019118898
-0.0239681
-0.010147432
-0.025074765
-0.016542846
-0.03717082
-0.04755857
-0.002290798
-0.05742741
0.04704332
0.0048946347
-0.10437483
0.037228655
-0.031857915
0.023382092
-0.1422282
-0.03397198
-0.00751195
-0.02788248
-0.017972348
-0.057805836
-0.018639032
-0.039411977
-0.02042497
-0.0024449097
-0.110119365
-0.030899426
0.0055740145
-0.0033295418
0.026619732
-0.05825541
-0.06956052
-0.022598501
-0.06432756
-0.083353944
0.021984022
0.017210227
0.0067684287
-0.038356733
-0.018005775
-0.008648799
-0.021830143
-0.009826417
-0.009978062
-0.105947904
-0.036920074
-0.007256679
-0.028515507
-0.13000941
-0.036591537
0.008367374
-0.035478123
-0.023408497
-0.0737577
-0.018976863
-0.04946017
-0.009609853
-0.03264046
-0.08324713
-0.002429398
-0.019666223
0.013497858
-0.10263262
-0.024562832
0.00467357
-0.021131622
-0.12364184
-0.036975328
-0.0023543553
-0.012599956
-0.09273627
-0.023674302
0.00025236188
0.0044759754
-0.031246923
0.013543901
-0.058046408
-0.12226101
-0.0070430757
-0.0431162
-0.0366258
-0.076092824
-0.06951815
-0.016976053
-0.0037170637
-0.06878746
0.025437253
-0.04759911
-0.16920951
-0.011148554
-0.005560314
0.007626707
-0.007944889
-0.035685886
0.022149058
-0.004478358
-0.08870319
-0.010705083
-0.015695674
-0.017944368
-0.07429817
0.0023628133
-0.0018744043
-0.078120075
-0.024768041
-0.019417124
-0.007677687
-0.0003211954
-0.035173547
0.008316019
-0.039090876
-0.12931345
-0.001760364
-0.031946845
-0.02571733
-0.10595467
0.0038411974
-0.017457291
0.006231991
-0.08369407
-0.009851692
-0.022983957
-0.0293491
-0.086653896
-0.07176907
-0.02954801
-0.017188566
-0.15557243
-0.019020863
-0.02158416
-0.034507375
-0.10217319
0.019139843
-0.018405357
-0.0710868
-0.0011470594
-0.057363987
-0.05092827
-0.14650491
-0.018637553
-0.02097427
-0.023614345
-0.12472601
0.008381386
-0.0035978982
-0.0052745757
-0.049497962
-0.03831351
-0.04716082
-0.0156100085
-0.12750442
