-0.045591176
-0.06267489
0.035861336
0.06641202
0.061487246
0.04103214
0.050834738
-0.025369853
0.05466631
0.073423095
0.03346877
0.02601843
0.07314221
0.018401103
0.07115848
0.02834167
-0.0154104
0.024726627
-0.012608487
-0.012364967
0.06252922
0.07089596
0.08427025
0.03697209
0.003952548
0.025588071
-0.010531945
0.044895463
0.051929094
0.021996954
0.064633444
-0.0030646704
0.044954367
0.04002017
0.033484705
0.020530116
0.02188949
-0.011779259
0.014745282
-0.14387609
-0.04469798
0.02680465
0.006102262
-0.01817629
-0.02495604
-0.017028445
-0.021325227
-0.033471357
-0.047822304
0.015812876
-0.02426186
-0.020308908
-0.005065098
0.0023331
-0.017713198
-0.034459822
-0.004583295
-0.022814937
0.013956631
-0.005275789
-0.011960704
-0.04900321
-0.02239872
-0.0053150286
-0.039073292
-0.0026651928
-0.022835871
-0.015368292
0.011832943
-0.0009241892
-0.0138743725
-0.04125983
0.0024237891
-0.025644835
-0.015138058
-0.031511802
-0.036629528
0.024488611
0.03963553
0.022454992
-0.078950666
0.009323586
0.04287265
0.0037361188
-0.015222319
-0.0028587123
-0.028543202
-0.014701784
-0.004444637
-0.014578755
-0.047102924
0.016335582
0.009034859
-0.021526901
-0.10061448
-0.002149106
0.008654696
-0.057957716
-0.015997142
0.02567526
-0.00021255677
-0.031374034
-0.006210992
-0.019232057
-0.0336227
-0.008491412
-0.00076382566
-0.011541019
-0.07039072
-0.011873145
-0.035268914
0.014748563
-0.07994971
0.03963022
-0.0064397883
-0.0031883824
-0.04361812
0.017726857
0.011355272
-0.009097105
-0.016064735
0.031005427
-0.019450916
-0.058134757
-0.004938577
0.0006602056
-0.031979688
-0.04094971
-0.014257611
-0.03383478
-0.004295758
-8.0281025e-05
-0.0111746
-0.009107131
-0.14590992
0.032044098
0.0042404053
0.027282063
0.038547505
0.00044924679
-0.02006905
-0.0035981582
-0.039207805
-0.029892381
-0.0104233455
-0.03420693
-0.041188758
0.017733
0.023756655
-0.021256056
-0.034294434
0.020853061
-0.0028765216
-0.02728648
0.02732159
0.0019244722
0.0026783997
-0.08989999
-0.016530547
-0.01684196
-0.040314097
-0.043593694
0.023463104
0.0115317125
-0.027926302
-0.033992015
-0.044871636
-0.002567
-0.0047259443
-0.01134606
0.044766102
-0.03102779
-0.011928051
-0.08678821
-0.002626269
0.003066903
0.0065686307
-0.08175376
0.001174036
-0.0012902999
-0.0567201
0.015744224
-0.05569012
-0.04929633
-0.094592266
-0.009237792
0.006582351
-0.021496153
-0.042165063
0.016547812
0.013605526
-0.030969404
-0.023709303
0.0038874766
-0.02394782
-0.03617957
-0.10845574
