-0.042515926
-0.024772301
0.005588333
0.004763172
0.034136746
0.03121025
0.019443853
-0.055751916
0.032451734
0.061942037
0.04673717
-0.0049150176
0.015539463
-0.0066481717
0.07622271
0.05868353
-0.0035767893
-0.031174412
-0.027185494
-0.0068568448
0.022897651
0.05582462
0.04896931
0.045366447
-0.0017895106
-0.031678118
-0.018416462
0.02742968
0.036793996
0.035947777
0.0550523
0.0036043576
0.03716503
0.03898871
0.034022875
-0.007065294
-0.02169279
-0.051283676
-0.008473423
-0.18602471
-0.018416403
-0.041030932
-0.038390916
-0.04717437
-0.045778755
-0.08477301
-0.0009060099
-0.035583887
-0.01099637
-0.004087499
-0.022612704
-0.01964235
-0.05668559
-0.03333992
0.0010671392
0.025864637
0.000108715285
-0.069758736
-0.030846193
-0.034427196
-0.05903212
-0.1343897
-0.044341687
0.0019594808
-0.06892744
-0.04848547
-0.07402695
-0.041256133
-0.014514181
-0.021271931
-0.044168536
-0.07355407
0.0072410973
-0.0009010137
0.019968143
-0.01599316
-0.05905081
-0.041343924
-0.013557826
-0.05540783
-0.08999217
-0.026289739
-0.033513777
0.004334802
-0.031664897
-0.03003508
-0.0019518655
-0.0028855435
-0.018473646
-0.016950725
-0.09718726
-0.05254104
-0.01064683
-0.005981736
-0.1270716
-0.062852494
0.028889477
-0.02554823
-0.024892854
-0.086263195
-0.041930065
-0.019951932
-0.044421356
0.0021330547
-0.0702346
-0.015242291
0.016287055
-0.044692475
-0.09147962
-0.024183834
-0.004596415
-0.0044042883
-0.13260394
-0.025237208
-0.0022415684
-0.007969228
-0.10677737
0.005115159
0.006904238
-0.037353937
-0.044738542
-0.018565785
-0.0016537609
-0.12467782
-0.010452479
-0.010570887
-0.014756669
-0.075802885
-0.036988296
-0.022335466
-0.027354453
-0.06754224
-0.017890733
-0.037115075
-0.16864625
0.013492969
-0.03564225
-0.00034832268
0.010087738
-0.03601993
0.014153686
0.014048951
-0.06552446
-0.032531343
-0.007873793
-0.0055344556
-0.13285126
-0.06043284
0.008746458
-0.06761815
-0.0136346035
0.022266902
0.012499874
0.011596106
-0.005755427
-0.031402063
0.011151811
-0.1329652
-0.0020479218
-0.011918299
0.023546256
-0.12547065
-0.004234
0.02551037
0.015947437
-0.07722164
-0.017731039
0.014145814
-0.026338171
-0.111103676
-0.0062238253
0.0069547743
-0.03741153
-0.19874018
0.009650975
-0.03880844
0.0071383445
-0.13199268
-0.023817783
-0.018269585
-0.0753382
-0.013638166
-0.03747438
0.022585131
-0.14663923
0.001519732
-0.007909858
-0.018956015
-0.080691524
-0.006001499
-0.027443323
0.006015293
-0.0700308
-0.042577453
-0.03196932
-0.008828852
-0.17790079
