-0.015938835
-0.0104562
-0.01767381
0.034644317
0.028468339
0.008041683
0.032294918
-0.024904067
-0.018499745
0.048983626
0.045104157
-0.010308406
0.056672767
0.016580202
0.06535059
0.030078834
0.03032551
0.031292267
-0.029115463
0.01156669
0.040856138
0.043420702
0.051473025
0.040416636
0.02229
-0.0013747719
-0.014948531
0.0011893008
0.06385377
0.027437476
-0.010043921
0.0075026103
0.020347042
0.06491162
0.050527286
0.0066216653
0.014355631
-0.077041976
-0.004298741
-0.17032653
-0.026602939
-0.036786966
-0.018031282
-0.038812656
0.006669781
-0.06448279
-0.051307496
-0.05538873
0.016368192
0.029545294
-0.004204173
-0.028186368
-0.025855793
-0.019439308
-0.019948978
0.0064655705
0.011183913
-0.054467857
-0.0084219985
-0.010016177
-0.011021749
-0.08738041
0.0021818778
-0.013132246
-0.016254338
-0.029253282
-0.049830236
-0.010587247
-0.008666707
-0.02857466
0.005558622
-0.0564937
-0.018257912
0.015020139
-0.04540209
0.0063658105
-0.057911467
-0.007947697
0.009598395
-0.04446689
-0.08672263
-0.014806129
0.045414545
0.019555388
-0.06540163
-0.013026753
-0.04523551
0.023610678
-0.04291024
-0.008760184
-0.06613444
-0.02008661
-0.02493772
-0.010783329
-0.13436499
-0.040957194
-0.000108371634
-0.0055424394
-0.022541245
-0.050242268
0.013395767
-0.031354286
-0.008035172
0.010351818
-0.04802436
-0.023182612
-0.00905595
-0.02413042
-0.060660213
-0.019508632
-0.020086896
-0.02576337
-0.13865282
-0.015673654
-0.015942363
-0.013788491
-0.07662276
0.021439062
-0.0018685801
-0.025968688
-0.019008545
0.065490074
-0.02612923
-0.14839724
-0.033827472
0.0063019204
-0.012491152
-0.06745885
-0.009684404
-0.031766452
0.0056703947
-0.06712038
0.028850615
-0.0019206842
-0.10786238
0.0040545543
-0.00329094
-0.0046733613
-0.021884153
-0.009681865
0.005369468
-0.044963814
-0.08109196
0.023147803
0.007812896
-0.009280444
-0.110691905
-0.0036313601
0.006844922
-0.05546872
-0.018690689
-0.01336014
-0.010515411
-0.015163328
0.011855777
-0.006303289
-0.015122781
-0.12510498
-0.0080323955
0.0072880364
0.008918762
-0.08186315
-0.015984613
0.006314773
-0.015775358
-0.06897852
-0.008159476
0.018216353
0.005964989
-0.041100144
-0.038360365
-0.05114831
-0.021238388
-0.1353041
0.011103891
-0.0021547442
-0.02611658
-0.080643125
-0.036177814
0.023004225
-0.06169208
-0.024789758
-0.01090678
-0.008214089
-0.13173379
-0.022324711
-0.00621475
0.013350452
-0.015093778
-0.033883445
-0.047174096
0.005463265
-0.053085875
-0.030978711
-0.049857013
-0.052712906
-0.110216744
