-0.12891512
-0.25816473
-0.10962011
-0.20329282
-0.1089893
-0.111103125
-0.24625906
-0.11224995
-0.12991707
-0.18187027
-0.18266422
-0.21175292
-0.21251562
-0.1259312
-0.13613221
-0.13231163
-0.11387662
-0.17432554
-0.14216173
-0.16827454
-0.20178506
-0.13901706
-0.18109767
-0.18045098
-0.12892754
-0.13006057
-0.09632054
-0.11953177
-0.13505836
-0.13028881
-0.09887036
-0.10217112
-0.119577944
-0.14752002
-0.1259526
-0.17218067
-0.09270184
-0.054513443
-0.01653733
-0.30668187
-0.20168379
-0.191631
-0.15587123
-0.13416904
-0.10136872
-0.3620698
-0.17193045
-0.069650635
-0.12394993
-0.10796368
-0.07578275
-0.35629874
-0.17764622
-0.1654238
-0.12991045
-0.09935477
-0.036724824
-0.34960315
-0.04786235
0.099427775
0.006455626
-0.29496264
-0.07307747
-0.13703504
-0.09787647
-0.09777198
-0.22576094
-0.033368077
-0.06139268
-0.12314537
-0.06750151
-0.2268326
-0.04680947
0.016812414
-0.10981953
-0.0003492353
-0.28127882
-0.11070057
0.0048129694
-0.04282904
-0.27200547
0.047530863
-0.22644736
-0.14809309
-0.21140781
-0.16426256
-0.16782542
-0.08586196
-0.18839547
-0.10930921
-0.26960906
-0.0194318
-0.014067935
0.06588514
-0.2791198
-0.14503357
-0.1423385
-0.06130944
-0.09851171
-0.28296727
-0.15350841
-0.0670747
-0.12644863
-0.14179409
-0.27334508
-0.033215072
0.0506098
0.030403063
-0.2503642
-0.013343819
0.024009427
0.07926917
-0.28180495
-0.08202654
-0.03279776
-0.021260584
-0.29123634
0.07525771
0.027251832
0.105104305
-0.19394821
0.13194838
0.0091115385
-0.15842222
0.14757156
0.08228245
0.16556494
-0.11069644
-0.0496429
0.042513613
-0.022572873
-0.28649646
0.12775528
0.08390133
-0.070534214
-0.09496991
-0.10396446
-0.13238484
-0.1520771
-0.25855532
0.3142545
0.038487524
-0.034299936
-0.16623901
-0.069906384
0.0070284978
-0.28878978
0.6380555
-0.016554305
0.045711257
-0.05359073
-0.060364176
-0.07595117
-0.118310735
-0.29869056
0.060336083
0.0011287549
-0.20074262
0.013741294
-0.017914932
0.069728665
-0.21775487
-0.046395734
0.01673731
-0.042532876
-0.3119273
-0.036753584
0.06510135
0.049105812
-0.2549708
-0.019858465
-0.072844975
-0.049050547
-0.35394984
-0.0028188517
0.014572143
-0.09361378
-0.3165195
0.061898842
0.120935015
-0.17653255
-0.065465815
-0.056424633
0.011919077
-0.2859706
-0.054428108
0.03453407
0.015132282
-0.28329435
-0.04091897
0.06737204
-0.025150523
-0.27792466
-0.106140435
-0.1174769
-0.05305108
-0.3288827
