0.034445804
0.031057999
0.02992953
0.045121606
0.015925309
0.041284658
0.026218235
-0.042285033
-0.026148979
0.065467276
0.050043043
0.018670775
0.042160287
0.015188689
0.06786422
0.022756614
0.016544757
0.04044076
0.011191841
-0.037403073
0.009426716
0.035164412
0.06913525
-0.01285485
0.015085258
0.034979183
0.011573201
0.009310693
0.06974145
-0.008547235
0.050346006
0.020621015
0.03453294
0.024949176
0.036048356
0.034728374
-0.007794678
-0.0806793
-0.020830186
-0.15328915
-0.019641755
-0.028137973
-0.031261124
0.025857076
0.0018837652
-0.022982731
0.0318143
0.00446472
-0.004015114
-0.012561079
0.016501505
0.0077506667
-0.029056387
-0.016386958
-0.019209962
-0.05323761
0.0482201
-0.038308356
0.0040668445
-0.0132532185
-0.046479166
-0.042690165
6.082887e-05
0.031035108
0.0059191957
-1.20379555e-05
0.006076308
-0.022785092
0.004706649
-0.005108138
-0.022662167
-0.033376835
0.00048733046
-0.023822298
-0.0038891197
0.004241797
-0.008637347
-0.019707344
-0.0056624333
-0.026700847
-0.028824149
-0.041956928
-0.014897033
-0.022293167
0.00794569
0.013071888
-0.008339307
-0.027536124
-0.02385104
-0.042946104
-0.03602169
-0.006444827
0.0021075248
-0.0046057687
-0.06542924
0.009972747
0.018715529
-0.036528718
-0.008170068
0.012618778
-0.07490933
-0.006566382
-0.027464634
-0.006993228
-0.023522152
0.021581134
-0.011716024
-0.03306038
-0.040731017
-0.0011187177
-0.020362578
0.014626245
-0.072992384
-0.010252321
-0.00877427
-0.052111767
-0.05659182
0.036502425
-0.051975038
-0.0047720005
0.02237196
-0.038930666
-0.01878306
-0.06814708
-0.021017708
0.010540398
0.0032087406
-0.046257716
0.016229704
0.003529273
-0.019873673
-0.017544651
-0.03456176
-0.027312778
-0.08224821
-0.022566097
-0.004122815
0.010101849
0.011913792
0.00670198
0.01757733
-0.02600295
-0.082286164
-0.038348265
-0.006487676
-0.003128097
-0.02909136
-0.008017413
0.0005434824
-0.044243686
-0.03217892
0.039578762
-0.018574525
-0.011836537
0.018877514
0.011917618
-0.021513404
-0.079514325
-0.016145017
-0.012198695
-0.037962165
-0.0496974
0.008640793
-0.006695547
-0.018892527
0.0025683474
-0.042527236
-0.028191462
0.007261718
-0.022556288
0.026917433
-0.06875712
-0.034873806
-0.08121341
-0.0066904346
-0.005849668
-0.004388742
-0.054640878
-0.0016808632
-0.011074754
-0.04401993
-0.01017269
-0.06342825
-0.027771305
-0.07664599
-0.03488126
-0.02572008
-0.01937404
-0.035705134
-0.03628447
0.03017908
0.012928747
-0.030843627
-0.023199987
-0.021317398
-0.0626997
-0.059108377
