0.0010011229
0.03602329
0.038991295
0.05748792
0.0575906
0.06607344
0.01649049
-0.023646837
0.056989457
0.07286609
0.07127898
0.03792408
0.06855963
0.03833878
0.060263045
0.07391329
0.016845234
0.027451951
-0.0118529685
0.0014965399
0.03864338
0.060430188
0.09387674
0.026379697
0.03803201
0.037028886
0.063526444
0.07361938
0.069770575
0.043251876
0.009652367
0.040631425
0.03300866
0.05531002
0.053953145
0.0547839
-0.05759947
0.0038067552
-0.048096985
-0.096738786
0.018922841
-0.016906962
-0.04938745
0.0035953505
-0.042726852
-0.0030842174
0.0040855203
0.017807832
-0.0049069994
0.016982518
-0.004497488
0.035629477
0.024756009
-0.043930907
-0.020529628
-0.0071527124
-0.0007623802
0.028604593
-0.018632088
0.027993266
-0.012005057
0.010725316
-0.00056914776
0.022923645
0.025263974
-0.0106496345
0.06128106
-0.02265804
-0.04915979
0.0065311803
-0.059786554
0.015258608
-0.014804459
-9.2043876e-05
0.015265805
0.023355732
0.04076769
-0.019456511
-0.027047014
-0.002576922
-0.016982105
-0.017812144
-0.019051539
-0.007873332
-0.05486793
0.037471037
-0.02639589
0.0011738897
0.04163593
-0.0029553154
0.016372362
0.003096247
-0.008208321
-0.049385227
-0.004488941
-0.03253088
0.0018530368
0.0025656002
-0.009259327
0.040339444
-0.015518782
0.020408759
-0.0040923567
0.022562496
0.0071287057
0.0056804754
-0.017221328
-0.024717793
0.01221396
-0.029399289
-0.0013550628
-0.026995284
-0.049895547
-0.01763149
-0.02199145
-0.018089227
0.0054642595
0.00031767
-0.0023266298
0.00944596
0.0813065
0.006487599
-0.021941744
-0.029411817
0.023962514
0.022240592
-0.009384305
0.009537405
-0.012176795
-0.026082503
-0.014945531
0.013743496
-0.024113715
-0.012015793
-0.04886328
-0.034202654
0.020135947
-0.0074355328
0.02588276
0.05325646
0.015635636
0.00083924166
-0.011583713
0.0283937
-0.02637963
-0.0063104127
-0.02236291
-0.016486546
0.006682633
0.013831316
-0.021271946
0.03666737
0.011817386
0.0067197406
0.05857047
-0.026774552
-0.020904006
-0.03733632
-0.023011263
0.009495415
0.021221574
-8.496849e-05
0.007817302
-0.0018897379
-0.004001102
0.019442677
-0.0065873
-0.036138184
-0.034416314
0.013903232
-0.012250042
-0.04360094
-0.0485078
-0.049622715
-0.023139732
0.016732274
-0.02514495
-0.0030094152
-0.007202829
0.015588965
0.017466277
0.0058676377
0.008723932
-0.035546225
-0.04156597
-0.01771308
-0.035985902
-0.022924254
0.018234348
-0.008993722
0.0009895846
-0.007618877
0.037919227
0.00043335854
-0.011027542
-0.06845999
-0.034266606
