-0.04389896
-0.057206474
0.028033832
0.11055449
0.01578182
-0.035267536
-0.067690246
-0.029065207
0.011270322
0.07101513
-0.037930913
-0.010595693
0.011671344
-0.085243955
-0.006674832
-0.03587709
-0.0059252693
0.044176225
-0.029129362
0.06898645
0.066236705
0.03988858
-0.05498287
0.08046552
-0.06846859
-0.15002836
-0.04696889
0.0140322205
0.029595966
-0.05860014
-0.072785646
-0.028292082
-0.04685562
0.07362444
-0.022791967
-0.066717565
-0.15724751
-0.1595166
-0.02800758
0.1816254
-0.11429636
-0.077049114
-0.08314401
-0.035608318
-0.057632443
0.21565968
-0.112549186
-0.063381046
0.019682087
0.029090447
-0.008361796
0.23434666
-0.053994223
-0.11260224
-0.04530667
-0.10145308
-0.025108308
0.22883043
0.01089506
0.08788903
-0.0035854739
0.15839064
-0.11497587
-0.1396639
-0.09247378
-0.20949264
0.24607399
-0.27295378
0.01777787
-0.09036355
-0.21169159
0.27988568
-0.091346554
-0.11481213
-0.16891879
-0.07303786
0.3013412
-0.10274914
0.033604134
0.06953283
0.13143761
-0.021827292
-0.31886965
-0.05576161
-0.2908308
0.23446965
-0.16096497
-0.09637151
-0.31206805
-0.19701749
0.22922546
-0.022117358
0.013507359
0.0661698
0.15092954
-0.18208125
-0.11775236
-0.051678564
-0.1282103
0.26551583
-0.2113436
-0.14051604
-0.04729295
-0.23979118
0.23514715
-0.08080644
0.004917202
-0.022912199
0.19768968
-0.034730814
-0.08791271
0.075530715
0.14560364
-0.1367529
0.052725494
-0.041632995
0.18852058
0.05935349
0.095636226
0.17790757
0.13566542
-0.15242147
-0.2524387
0.19782503
0.18630679
0.1477366
0.13574994
0.20248108
0.033019345
0.101240374
0.035526145
0.16017346
-0.09228402
-0.12450191
0.20902151
-0.063337505
-0.014538334
0.020480298
-0.11630613
0.29077804
0.016448744
-0.13075565
0.23607896
-0.236385
-0.20907542
0.06838259
0.1956027
0.17952377
-0.13093574
0.24381511
-0.074104965
-0.0469886
-0.22306775
-0.18687008
0.2998749
-0.12156166
-0.27194774
0.19909517
0.088505164
0.019317282
0.08680737
0.18717234
0.15462142
-0.00917258
0.003539564
0.16705856
-0.07508281
-0.020113695
0.0266816
0.15294555
-0.091986164
-0.048503306
-0.0993338
0.10570576
0.03906832
0.015362855
-0.06697193
0.19351864
-0.14070344
-0.018184174
0.15719096
-0.15104105
-0.11627245
-0.043982055
0.15666668
-0.02954427
0.16425057
0.034428768
0.19822703
-0.023250505
0.23817322
-0.039468307
0.18060854
-0.15283737
-0.14409944
-0.045312494
0.16450502
