-0.048253153
-0.06548388
0.013752324
0.053818397
0.06902245
-0.0025013408
-0.012059258
0.055690378
-0.015538532
0.091129705
0.06484805
-0.03196133
0.10114381
-0.015366528
0.031882726
0.035563517
-0.03267111
0.059357
-0.032252435
0.014205234
0.053913187
0.018767606
0.0021941508
0.08220337
-0.016902832
-0.064299844
-0.042725146
0.039400183
0.057398763
0.026922438
-0.025673954
-0.057118822
-0.014903671
0.075034074
-0.02704798
-0.030739397
-0.11539861
-0.09997861
-0.038206358
0.03848008
-0.04112117
-0.092693254
-0.106762245
-0.008308491
-0.009888064
0.041602854
-0.0621744
-0.033880234
0.03617243
0.04562222
-0.022055862
0.07613997
-0.07786677
-0.0796928
0.045031298
-0.082890965
0.07595066
0.045593075
0.007968478
0.0777668
-0.017552648
0.028351529
-0.09316602
-0.13543566
0.007679721
-0.085704595
0.09668162
-0.15209302
-0.046869405
-0.19891535
-0.12132255
0.110012196
-0.019482516
-0.010309735
-0.08242526
-0.0012123983
0.12663943
0.030990256
0.04055555
0.06673184
-0.10323158
0.030642875
-0.27787265
-0.052477486
-0.28541404
0.110917754
-0.11686583
-0.123868875
-0.23048379
-0.11469445
0.09870126
-0.014961872
0.025111645
0.016076032
0.035835985
-0.19197777
-0.093089715
-0.05970846
-0.021455303
0.09658854
-0.15275225
-0.1220103
-0.09555425
-0.16579951
0.07869512
0.06263137
0.049160108
0.056412816
0.01760764
-0.00052911206
0.08569151
0.06643588
0.022233672
-0.04850352
0.04797391
-0.003171607
-0.041618265
0.075351104
0.04173333
0.20673572
0.04537473
-0.020759635
-0.14366592
0.008173751
0.19211066
0.13097501
0.24122258
-0.023939798
0.08500516
0.19006404
0.009818272
0.06819405
0.028944436
-0.12712385
0.05629376
-0.080385014
-0.058674224
-0.041212562
-0.12464965
0.10993726
0.11604796
-0.1781156
0.087862626
-0.23003255
-0.19615534
0.13957684
-0.045681234
0.3766464
-0.15051925
0.055814207
0.026303632
0.048963655
-0.14025149
-0.13670215
0.14678875
-0.11455078
-0.25348288
0.14249122
0.13953231
0.07914045
0.048148453
-0.006615306
0.063600175
0.028454453
-0.052258346
0.02976268
-0.0070666783
0.037962243
0.13971299
0.024458386
-0.033656545
-0.06231939
-0.06609388
0.038555633
-0.03814869
0.02545689
-0.062334243
0.0068600657
-0.07251031
0.023776922
0.012431576
-0.06650579
0.006498059
-0.025019567
0.024682654
0.09604786
0.11162301
0.09167525
-0.022603799
-0.039177746
0.1139047
-0.053509098
0.005068278
-0.028345082
-0.120551735
-0.021114253
0.053566378
