-0.03364494
0.009682063
0.004944609
0.08680417
0.0032494
0.017517276
-0.054138035
-0.07925305
-0.10433538
0.06030551
-0.022364153
-0.014705111
-0.044080835
0.05052533
0.056066163
0.009935054
0.02693593
-0.018488547
-0.09933739
0.0008146442
0.05229221
-0.010987965
0.033956476
0.009032766
-0.038300097
-0.05355524
-0.064758785
0.024190588
0.059055503
0.027813528
0.0041617183
0.01348262
0.018573191
0.023818525
-0.025675124
-0.05379472
-0.15834796
-0.16407283
-0.036612093
0.050295778
-0.07745755
-0.13796261
-0.07971162
-0.057219967
-0.023330348
0.11010499
-0.072513975
-0.022228656
-0.007214066
0.00072079577
0.0058170087
0.100088336
-0.09791903
-0.09823725
-0.007609745
-0.10291839
0.044622187
0.121864825
-0.08735245
0.0887149
-0.056426864
0.083258234
-0.18545684
-0.18441199
-0.080321886
-0.17309654
0.14426453
-0.22276218
0.025112258
-0.16145128
-0.16613899
0.1938874
-0.0666506
-0.067862526
-0.07183676
0.030592317
0.20233819
-0.005311179
0.023578111
-0.006538516
0.056281127
-0.04343799
-0.27143484
-0.06780874
-0.384322
0.17927174
-0.18369703
-0.15811989
-0.28218734
-0.21935877
0.12391904
-0.001967972
-0.012370135
0.023266012
0.039252367
-0.21260715
-0.12375445
-0.11670824
-0.15757784
0.15264593
-0.20634645
-0.20999348
-0.092389464
-0.23707731
0.16323279
-0.017272316
0.02129487
0.06044038
0.11370309
0.013335997
0.098542154
0.061652593
0.050732233
-0.1566419
0.04241055
-0.05908243
0.032412976
0.17251068
0.050157152
0.20834254
0.08533888
-0.08104374
-0.19242594
0.10596694
0.14892168
0.1475004
0.24173726
0.13462362
0.00445137
0.08957103
-0.029716574
0.03584523
0.0066470425
-0.12303959
0.121545464
-0.11866898
-0.018385043
-0.007039224
-0.19641387
0.14938098
0.122552015
-0.10488022
0.17822157
-0.286361
-0.2831937
0.030027494
0.08129505
0.2400221
-0.05136166
0.14361845
0.023151258
-0.13255319
-0.22298622
-0.1809315
0.1619687
-0.060743425
-0.26127395
0.105730124
0.13303809
0.010394781
0.12578921
0.06842268
0.04645663
-0.0027842205
-0.03405811
0.085209414
-0.021645527
0.027293894
0.113281764
0.11348228
-0.05849072
-0.11717588
-0.14150028
0.029002288
-0.07779882
0.027727004
-0.060814105
0.07873561
-0.055803847
-0.03543186
0.10854832
-0.060027823
-0.1097399
-0.05804575
0.09572494
-0.029431714
0.09404861
0.066943906
0.0907506
-0.07364201
0.122574955
-0.05191111
0.100122675
-0.13522436
-0.18488814
-0.10240848
0.07432131
