-0.048539814
-0.017834056
-0.038970813
-0.19490369
-0.0407096
-0.084968396
-0.055151675
-0.059179254
-0.026647814
-0.18808018
-0.10824696
-0.04078775
-0.06415403
-0.046391137
-0.05824684
-0.17161731
-0.06945
-0.19730438
-0.0554058
-0.028281312
-0.20987715
-0.05598026
-0.06502666
-0.057427417
-0.097947486
-0.078340925
-0.045314018
-0.11898452
-0.1833993
-0.123439856
-0.13749638
-0.21562424
-0.15976653
-0.19235009
-0.12915124
-0.07102157
0.087856576
0.090192065
0.17017214
-0.31215888
0.026033178
0.01976122
0.06764516
0.1591327
0.08164258
-0.4282334
0.012332184
-0.0327171
0.040559858
0.117894635
0.029414881
-0.4047631
0.02386945
0.0013748953
0.07850017
0.045282297
0.06583043
-0.43415985
0.05580922
0.059083782
0.21857914
-0.3314699
-0.06520992
-0.08435799
-0.13410552
-0.1398712
-0.17117077
-0.07481027
-0.060642194
-0.068925075
-0.19441035
-0.21401596
-0.08633276
-0.071958736
-0.11196832
-0.044602998
-0.18619822
0.04047063
0.2524906
0.09300391
-0.09869063
-0.08264142
-0.02853679
-0.19937368
-0.025060399
-0.07217787
-0.07091522
-0.107055
-0.18763067
-0.10977748
-0.24590328
0.07010394
0.19476007
0.14731729
-0.32989472
-0.03259217
-0.14231183
-0.1342751
-0.19428018
-0.16094121
-0.0431386
-0.08143382
-0.11631138
-0.13635425
-0.11085878
0.048602637
0.12472711
0.19175346
-0.43047738
0.08995649
0.08085241
0.2131256
-0.36070615
0.040258504
0.20812339
0.01167576
-0.33950323
0.028833035
0.010977643
-0.014101082
-0.34581932
-0.024053698
-0.1267706
-0.06786355
0.04258044
0.23301327
0.06538634
-0.10614224
0.044967942
0.028271837
0.054870244
-0.3855304
-0.029457547
-0.08730826
-0.049466558
-0.10675235
-0.21799159
-0.17158085
-0.06891023
-0.16085342
-0.109046094
-0.02141266
-0.16502047
0.037796278
0.11101146
0.09763459
-0.4451658
0.061731037
-0.120927915
0.010074402
-0.1890108
-0.1877654
-0.2778315
-0.2135306
-0.18836856
-0.027842747
-0.03260156
-0.22903927
0.06811068
0.06648999
0.15613087
-0.32831168
0.11130064
0.15840676
0.15267067
-0.3780016
0.0439769
0.18738502
0.08787281
-0.32926524
0.051602904
0.13486809
0.15410398
-0.38464487
0.06640842
0.12510087
0.20128866
-0.42285907
-0.21156879
0.02315824
-0.017844087
0.06299718
0.11886146
0.1370622
-0.3892986
0.05281115
0.18444583
0.1661784
-0.3288676
0.1323949
0.16042317
0.07785782
-0.39342493
0.037276108
0.118538655
0.13641234
-0.38571495
